{"learner":{"attributes":{"best_iteration":"90","best_score":"0.22861380891612362"},"feature_names":["households","housing_median_age","latitude","longitude","median_income","ocean_proximity=less 1H OCEAN","ocean_proximity=INLAND","population","total_bedrooms","total_rooms"],"feature_types":[],"gradient_booster":{"model":{"gbtree_model_param":{"num_parallel_tree":"1","num_trees":"100"},"iteration_indptr":[0,1,2,3,4,5,6,7,8,9,10,11,12,13,14,15,16,17,18,19,20,21,22,23,24,25,26,27,28,29,30,31,32,33,34,35,36,37,38,39,40,41,42,43,44,45,46,47,48,49,50,51,52,53,54,55,56,57,58,59,60,61,62,63,64,65,66,67,68,69,70,71,72,73,74,75,76,77,78,79,80,81,82,83,84,85,86,87,88,89,90,91,92,93,94,95,96,97,98,99,100],"tree_info":[0,0,0,0,0,0,0,0,0,0,0,0,0,0,0,0,0,0,0,0,0,0,0,0,0,0,0,0,0,0,0,0,0,0,0,0,0,0,0,0,0,0,0,0,0,0,0,0,0,0,0,0,0,0,0,0,0,0,0,0,0,0,0,0,0,0,0,0,0,0,0,0,0,0,0,0,0,0,0,0,0,0,0,0,0,0,0,0,0,0,0,0,0,0,0,0,0,0,0,0],"trees":[{"base_weights":[6.332835E-8,2.8925923E-1,-4.0444687E-1,1.609547E-1,7.2458506E-1,-6.113956E-1,-4.0148154E-2,-6.5188974E-2,2.684625E-1,5.963002E-1,9.352205E-1,-7.963761E-1,-4.7361857E-1,-1.4136699E-1,3.5070047E-1,-1.9137524E-1,7.1467996E-2,3.8759103E-1,1.7363161E-1,5.6485695E-1,8.1942534E-1,7.978232E-1,1.0013783E0,-8.772474E-1,-6.993558E-1,-5.4770577E-1,-3.8457924E-1,-2.3395719E-1,-7.7643497E-3,2.1230653E-1,5.724594E-1,6.654281E-1,-2.1841626E-1,1.0395526E-1,-5.879186E-1,6.538488E-1,2.598813E-1,6.745535E-2,2.2077088E-1,5.268621E-1,6.864722E-1,3.0298385E-1,8.3901185E-1,4.384446E-2,8.121335E-1,2.7842504E-1,1.0098085E0,-7.009294E-1,-9.942942E-1,-6.233041E-1,-8.777624E-1,-4.0262583E-1,-5.846707E-1,-4.4317695E-1,-3.2090253E-1,-1.22527376E-1,-2.7734527E-1,-4.2203773E-2,2.6591346E-1,3.609294E-1,1.2863879E-1,4.8768085E-1,7.073763E-1,4.005604E-2,2.0531969E-1,-9.850285E-2,-2.8615076E-2,4.6866458E-2,-1.9429844E-2,-1.2387699E-1,-2.3127551E-1,2.308982E-1,1.305862E-1,4.2316515E-2,1.0443423E-1,7.2152307E-3,5.988198E-2,5.9673544E-2,1.169183E-1,1.7375472E-1,1.425902E-1,1.868803E-1,2.4089797E-1,1.952734E-2,1.0385528E-1,1.7774613E-1,2.6298854E-1,1.1315017E-1,-5.7895664E-2,2.1915969E-1,2.8791535E-1,1.9988747E-1,-6.0674954E-2,2.8016087E-1,3.2448876E-1,-1.13081984E-1,-2.3742802E-1,-8.0634914E-2,-3.019027E-1,-1.3219327E-1,-2.1120042E-1,-2.6501808E-1,-1.0875607E-2,2.4524404E-2,-1.3688035E-1,-2.2979851E-1,-1.4901343E-1,-8.832362E-2,-1.8727799E-1,-8.65095E-2,-1.6010877E-1,1.0003458E-1,-6.633639E-2,-5.947298E-2,-1.4597082E-1,9.510046E-3,-3.3322696E-2,3.2550927E-2,1.335114E-1,1.990789E-1,5.7193227E-2,6.993514E-2,-2.1978728E-2,1.3035914E-1,2.228764E-1,1.4529277E-2,2.2743715E-1],"categories":[],"categories_nodes":[],"categories_segments":[],"categories_sizes":[],"default_left":[0,0,0,0,0,0,0,0,0,0,0,0,0,0,0,0,0,0,0,0,0,0,0,0,0,0,0,0,0,0,0,0,0,0,0,0,0,0,0,0,0,0,0,0,0,0,0,0,0,0,0,0,0,0,0,0,0,0,0,0,0,0,0,0,0,0,0,0,0,0,0,0,0,0,0,0,0,0,0,0,0,0,0,0,0,0,0,0,0,0,0,0,0,0,0,0,0,0,0,0,0,0,0,0,0,0,0,0,0,0,0,0,0,0,0,0,0,0,0,0,0,0,0,0,0,0,0],"id":0,"left_children":[1,3,5,7,9,11,13,15,17,19,21,23,25,27,29,31,33,35,37,39,41,43,45,47,49,51,53,55,57,59,61,63,65,67,69,71,73,75,77,79,81,83,85,87,89,91,93,95,97,99,101,103,105,107,109,111,113,115,117,119,121,123,125,-1,-1,-1,-1,-1,-1,-1,-1,-1,-1,-1,-1,-1,-1,-1,-1,-1,-1,-1,-1,-1,-1,-1,-1,-1,-1,-1,-1,-1,-1,-1,-1,-1,-1,-1,-1,-1,-1,-1,-1,-1,-1,-1,-1,-1,-1,-1,-1,-1,-1,-1,-1,-1,-1,-1,-1,-1,-1,-1,-1,-1,-1,-1,-1],"loss_changes":[1.1012268E3,3.0641162E2,2.9588568E2,1.0310127E2,3.3191956E1,6.341443E1,5.6345222E1,2.3586542E1,3.2400467E1,5.0024414E0,3.4824219E0,7.758423E0,9.268799E0,1.3988987E1,8.870663E0,1.6618383E1,1.4135152E1,4.311682E1,8.003231E0,2.8081665E0,6.966286E-1,1.6691513E0,1.6325684E0,1.1231476E1,6.1012573E0,3.9583588E0,2.305519E0,3.1956139E0,4.384565E0,2.21673E0,9.3608856E-1,1.3061523E-1,9.300625E0,5.539278E0,6.7441654E-1,1.0093521E1,8.988422E0,2.828768E0,4.018276E0,1.1464081E0,6.8434906E-1,2.8851748E-2,3.1521606E-1,3.8855112E-1,1.1655731E0,1.0669458E0,6.8063354E-1,6.562599E0,2.7451782E0,4.804611E0,6.503525E-1,4.2465076E0,9.523956E0,8.948456E0,2.0478554E0,8.570505E0,7.8475647E0,2.105651E0,1.4179068E0,3.2235718E0,2.5062068E0,6.539402E-1,1.3343182E0,0E0,0E0,0E0,0E0,0E0,0E0,0E0,0E0,0E0,0E0,0E0,0E0,0E0,0E0,0E0,0E0,0E0,0E0,0E0,0E0,0E0,0E0,0E0,0E0,0E0,0E0,0E0,0E0,0E0,0E0,0E0,0E0,0E0,0E0,0E0,0E0,0E0,0E0,0E0,0E0,0E0,0E0,0E0,0E0,0E0,0E0,0E0,0E0,0E0,0E0,0E0,0E0,0E0,0E0,0E0,0E0,0E0,0E0,0E0,0E0,0E0,0E0,0E0,0E0],"parents":[2147483647,0,0,1,1,2,2,3,3,4,4,5,5,6,6,7,7,8,8,9,9,10,10,11,11,12,12,13,13,14,14,15,15,16,16,17,17,18,18,19,19,20,20,21,21,22,22,23,23,24,24,25,25,26,26,27,27,28,28,29,29,30,30,31,31,32,32,33,33,34,34,35,35,36,36,37,37,38,38,39,39,40,40,41,41,42,42,43,43,44,44,45,45,46,46,47,47,48,48,49,49,50,50,51,51,52,52,53,53,54,54,55,55,56,56,57,57,58,58,59,59,60,60,61,61,62,62],"right_children":[2,4,6,8,10,12,14,16,18,20,22,24,26,28,30,32,34,36,38,40,42,44,46,48,50,52,54,56,58,60,62,64,66,68,70,72,74,76,78,80,82,84,86,88,90,92,94,96,98,100,102,104,106,108,110,112,114,116,118,120,122,124,126,-1,-1,-1,-1,-1,-1,-1,-1,-1,-1,-1,-1,-1,-1,-1,-1,-1,-1,-1,-1,-1,-1,-1,-1,-1,-1,-1,-1,-1,-1,-1,-1,-1,-1,-1,-1,-1,-1,-1,-1,-1,-1,-1,-1,-1,-1,-1,-1,-1,-1,-1,-1,-1,-1,-1,-1,-1,-1,-1,-1,-1,-1,-1,-1],"split_conditions":[2.00001E0,5.3638E0,3.4286E0,2.8365E0,6.871E0,2.2419E0,5.3241E0,3.404E1,-1.1832E2,3.7E1,7.7382E0,3.73E1,2.8542E0,4.2171E0,6.2957E0,-1.184E2,3.881E1,3.418E1,3.5076E0,6.3568E0,1.09E2,6.7E1,6.9E1,3.454E1,3.926E1,3.418E1,3.745E1,3.421E1,3.6E1,3.422E1,7.7382E0,3.4E1,-1.1821E2,-1.1822E2,3.972E1,-1.1836E2,3.8372E0,3.406E1,3.41E1,-1.1832E2,2.6E1,1.4E1,5.5486E0,3.39E1,2.7E1,4.4E1,9.042E0,-1.1734E2,-1.2076E2,2.4E1,1.808E3,-1.179E2,3.698E1,3.469E1,3.937E1,-1.1799E2,-1.1986E2,-1.2076E2,4.7027E0,-1.1785E2,-1.2076E2,3.4E1,2.5E1,4.005604E-2,2.0531969E-1,-9.850285E-2,-2.8615076E-2,4.6866458E-2,-1.9429844E-2,-1.2387699E-1,-2.3127551E-1,2.308982E-1,1.305862E-1,4.2316515E-2,1.0443423E-1,7.2152307E-3,5.988198E-2,5.9673544E-2,1.169183E-1,1.7375472E-1,1.425902E-1,1.868803E-1,2.4089797E-1,1.952734E-2,1.0385528E-1,1.7774613E-1,2.6298854E-1,1.1315017E-1,-5.7895664E-2,2.1915969E-1,2.8791535E-1,1.9988747E-1,-6.0674954E-2,2.8016087E-1,3.2448876E-1,-1.13081984E-1,-2.3742802E-1,-8.0634914E-2,-3.019027E-1,-1.3219327E-1,-2.1120042E-1,-2.6501808E-1,-1.0875607E-2,2.4524404E-2,-1.3688035E-1,-2.2979851E-1,-1.4901343E-1,-8.832362E-2,-1.8727799E-1,-8.65095E-2,-1.6010877E-1,1.0003458E-1,-6.633639E-2,-5.947298E-2,-1.4597082E-1,9.510046E-3,-3.3322696E-2,3.2550927E-2,1.335114E-1,1.990789E-1,5.7193227E-2,6.993514E-2,-2.1978728E-2,1.3035914E-1,2.228764E-1,1.4529277E-2,2.2743715E-1],"split_indices":[5,4,4,4,4,4,4,2,3,1,4,2,4,4,4,3,2,2,4,4,8,9,7,2,2,2,2,2,1,2,4,2,3,3,2,3,4,2,2,3,1,0,4,2,1,1,4,3,3,1,0,3,2,2,2,3,3,3,4,3,3,1,0,0,0,0,0,0,0,0,0,0,0,0,0,0,0,0,0,0,0,0,0,0,0,0,0,0,0,0,0,0,0,0,0,0,0,0,0,0,0,0,0,0,0,0,0,0,0,0,0,0,0,0,0,0,0,0,0,0,0,0,0,0,0,0,0],"split_type":[0,0,0,0,0,0,0,0,0,0,0,0,0,0,0,0,0,0,0,0,0,0,0,0,0,0,0,0,0,0,0,0,0,0,0,0,0,0,0,0,0,0,0,0,0,0,0,0,0,0,0,0,0,0,0,0,0,0,0,0,0,0,0,0,0,0,0,0,0,0,0,0,0,0,0,0,0,0,0,0,0,0,0,0,0,0,0,0,0,0,0,0,0,0,0,0,0,0,0,0,0,0,0,0,0,0,0,0,0,0,0,0,0,0,0,0,0,0,0,0,0,0,0,0,0,0,0],"sum_hessian":[9.411E3,5.487E3,3.924E3,4.239E3,1.248E3,2.502E3,1.422E3,1.366E3,2.873E3,7.78E2,4.7E2,1.066E3,1.436E3,1.13E3,2.92E2,7.1E2,6.56E2,1.272E3,1.601E3,6.85E2,9.3E1,1.57E2,3.13E2,5.77E2,4.89E2,7.81E2,6.55E2,6.67E2,4.63E2,1.81E2,1.11E2,2.1E1,6.89E2,6.26E2,3E1,4.11E2,8.61E2,4.93E2,1.108E3,5.26E2,1.59E2,4E0,8.9E1,3E0,1.54E2,4E0,3.09E2,2.33E2,3.44E2,3.46E2,1.43E2,1.61E2,6.2E2,3.38E2,3.17E2,1.88E2,4.79E2,4.12E2,5.1E1,6.4E1,1.17E2,7.1E1,4E1,1E0,2E1,3.63E2,3.26E2,4.78E2,1.48E2,1.7E1,1.3E1,2.67E2,1.44E2,3.68E2,4.93E2,3.72E2,1.21E2,9.83E2,1.25E2,2.56E2,2.7E2,1.07E2,5.2E1,1E0,3E0,1.4E1,7.5E1,1E0,2E0,1.03E2,5.1E1,2E0,2E0,1.57E2,1.52E2,5.2E1,1.81E2,6E0,3.38E2,1.08E2,2.38E2,1.42E2,1E0,1.6E1,1.45E2,2E2,4.2E2,1.87E2,1.51E2,2.77E2,4E1,3.3E1,1.55E2,3.49E2,1.3E2,1.99E2,2.13E2,2.8E1,2.3E1,2.2E1,4.2E1,7.7E1,4E1,6.1E1,1E1,3E0,3.7E1],"tree_param":{"num_deleted":"0","num_feature":"10","num_nodes":"127","size_leaf_vector":"1"}},{"base_weights":[1.7657109E-4,2.0305674E-1,-2.834939E-1,9.5959574E-2,4.719374E-1,-4.21125E-1,-9.691802E-3,-4.3551553E-2,1.7304166E-1,3.64104E-1,6.1070144E-1,-5.437346E-1,-3.1042552E-1,-1.2944932E-1,1.5228741E-1,-1.5864775E-1,3.470535E-2,2.4554087E-1,9.724034E-2,3.3985072E-1,5.261476E-1,5.302211E-1,7.033338E-1,-6.118718E-1,-4.6834862E-1,-3.5377064E-1,-2.4555168E-1,-1.2070515E-1,-1.7528048E-1,8.851029E-2,4.0603614E-1,-3.0467033E-1,-5.9245918E-2,5.466607E-2,-3.9619732E-1,3.6320087E-1,1.6581756E-1,9.3453354E-4,1.2039912E-1,1.4169136E-1,3.5400477E-1,-4.027319E-2,5.4196155E-1,4.719364E-1,6.457803E-1,2.2273998E-1,7.0881647E-1,-6.7397696E-1,-5.330941E-1,-3.5825822E-1,-4.9499926E-1,-2.4713328E-1,-3.8181552E-1,-2.3562239E-1,-5.453402E-1,4.568288E-4,-1.6594578E-1,4.1257434E-2,2.869321E-1,4.4211456E-1,1.9306463E-1,-1.04201436E-1,-1.9882584E-2,6.525107E-2,-2.6072465E-2,5.205384E-3,5.6747355E-2,-1.373976E-1,-3.4482803E-2,5.5132855E-2,1.523167E-1,5.5229384E-2,-8.7736264E-2,-2.553326E-2,1.3026097E-2,1.681228E-2,4.3775905E-2,2.2079887E-2,7.510882E-2,9.552123E-2,1.243154E-1,2.8635694E-2,-6.711745E-2,1.8918985E-1,1.2927943E-1,1.1835379E-1,1.4725788E-1,-1.9237995E-2,1.9747512E-1,1.5991002E-1,-4.8540022E-2,2.2544818E-1,1.8731686E-1,-2.2881909E-1,-1.6624908E-1,-1.7904893E-1,-1.0471063E-1,-9.9224985E-2,-1.8750717E-1,-1.529686E-1,-8.6168915E-2,-2.3459295E-2,-9.863008E-2,-1.5968549E-1,-9.3193196E-2,-7.469654E-2,-7.0607187E-3,-8.389378E-3,-1.7277852E-1,7.786715E-2,-2.3133345E-2,-2.6095243E-2,-9.376391E-2,-8.6741673E-4,3.7601978E-2,1.4417106E-1,2.9948108E-2,1.095692E-1,1.789566E-1,2.647439E-2,1.16397E-1],"categories":[],"categories_nodes":[],"categories_segments":[],"categories_sizes":[],"default_left":[0,0,0,0,0,0,0,0,0,0,0,0,0,0,0,0,0,0,0,0,0,0,0,0,0,0,0,0,0,0,0,0,0,0,0,0,0,0,0,0,0,0,0,0,0,0,0,0,0,0,0,0,0,0,0,0,0,0,0,0,0,0,0,0,0,0,0,0,0,0,0,0,0,0,0,0,0,0,0,0,0,0,0,0,0,0,0,0,0,0,0,0,0,0,0,0,0,0,0,0,0,0,0,0,0,0,0,0,0,0,0,0,0,0,0,0,0,0,0,0,0],"id":1,"left_children":[1,3,5,7,9,11,13,15,17,19,21,23,25,27,29,31,33,35,37,39,41,43,45,47,49,51,53,55,-1,57,59,61,63,65,67,69,71,73,75,77,79,81,83,85,87,89,91,93,95,97,99,101,103,105,107,109,111,113,115,117,119,-1,-1,-1,-1,-1,-1,-1,-1,-1,-1,-1,-1,-1,-1,-1,-1,-1,-1,-1,-1,-1,-1,-1,-1,-1,-1,-1,-1,-1,-1,-1,-1,-1,-1,-1,-1,-1,-1,-1,-1,-1,-1,-1,-1,-1,-1,-1,-1,-1,-1,-1,-1,-1,-1,-1,-1,-1,-1,-1,-1],"loss_changes":[5.4172864E2,1.5798909E2,1.4790439E2,4.222699E1,2.3165466E1,3.5283417E1,2.5508984E1,1.2597392E1,1.3874336E1,3.287529E0,4.711441E0,6.07251E0,3.7795715E0,2.9360971E0,9.010561E0,8.197389E0,7.186398E0,1.20590515E1,2.7610292E0,2.109497E0,1.034008E0,2.1805725E0,6.6947937E-1,2.806137E0,1.5595856E0,2.363945E0,1.5205879E0,4.0727882E0,0E0,4.188609E0,7.7521515E-1,2.3063202E0,2.6064706E0,3.9964886E0,5.904188E-1,1.3416595E1,6.521185E0,8.8472086E-1,1.6309967E0,3.7375343E-1,1.4114456E0,1.2095132E-1,8.1121063E-1,1.7115784E-1,1.1133766E0,6.8284607E-1,6.477356E-1,3.3842316E0,3.1937027E0,6.665268E-1,1.3205566E0,2.3738956E0,6.7848816E0,1.519247E0,2.529292E-1,4.099886E0,6.2353315E0,1.3478702E0,3.067863E0,9.0991974E-1,3.335263E-1,0E0,0E0,0E0,0E0,0E0,0E0,0E0,0E0,0E0,0E0,0E0,0E0,0E0,0E0,0E0,0E0,0E0,0E0,0E0,0E0,0E0,0E0,0E0,0E0,0E0,0E0,0E0,0E0,0E0,0E0,0E0,0E0,0E0,0E0,0E0,0E0,0E0,0E0,0E0,0E0,0E0,0E0,0E0,0E0,0E0,0E0,0E0,0E0,0E0,0E0,0E0,0E0,0E0,0E0,0E0,0E0,0E0,0E0,0E0,0E0],"parents":[2147483647,0,0,1,1,2,2,3,3,4,4,5,5,6,6,7,7,8,8,9,9,10,10,11,11,12,12,13,13,14,14,15,15,16,16,17,17,18,18,19,19,20,20,21,21,22,22,23,23,24,24,25,25,26,26,27,27,29,29,30,30,31,31,32,32,33,33,34,34,35,35,36,36,37,37,38,38,39,39,40,40,41,41,42,42,43,43,44,44,45,45,46,46,47,47,48,48,49,49,50,50,51,51,52,52,53,53,54,54,55,55,56,56,57,57,58,58,59,59,60,60],"right_children":[2,4,6,8,10,12,14,16,18,20,22,24,26,28,30,32,34,36,38,40,42,44,46,48,50,52,54,56,-1,58,60,62,64,66,68,70,72,74,76,78,80,82,84,86,88,90,92,94,96,98,100,102,104,106,108,110,112,114,116,118,120,-1,-1,-1,-1,-1,-1,-1,-1,-1,-1,-1,-1,-1,-1,-1,-1,-1,-1,-1,-1,-1,-1,-1,-1,-1,-1,-1,-1,-1,-1,-1,-1,-1,-1,-1,-1,-1,-1,-1,-1,-1,-1,-1,-1,-1,-1,-1,-1,-1,-1,-1,-1,-1,-1,-1,-1,-1,-1,-1,-1],"split_conditions":[2.00001E0,5E0,3.55E0,2.875E0,6.2957E0,2.3687E0,4.6161E0,3.401E1,-1.1825E2,3.7E1,7.7382E0,1.9176E0,3.0417E0,-1.1625E2,6.2957E0,2.0938E0,3.85E1,3.418E1,3.2308E0,3.303E1,2.67E2,2.8E1,6.9E1,3.73E1,1.7E1,3.416E1,-1.1625E2,3.421E1,-1.7528048E-1,2.9E1,-1.1752E2,-1.1807E2,-1.1834E2,7.45E2,2.6406E0,3.4E1,3.881E1,3.66E2,1.562E3,5.7083E0,5.7083E0,2.5E1,-1.1836E2,6.5356E0,1.4E1,4.4E1,-1.1808E2,-1.1888E2,-1.2121E2,-1.1644E2,9.16E2,-1.1758E2,3.683E1,4.4E1,1.4E1,-1.1782E2,-1.2065E2,5.4042E0,3.42E1,-1.1812E2,6.41E2,-1.04201436E-1,-1.9882584E-2,6.525107E-2,-2.6072465E-2,5.205384E-3,5.6747355E-2,-1.373976E-1,-3.4482803E-2,5.5132855E-2,1.523167E-1,5.5229384E-2,-8.7736264E-2,-2.553326E-2,1.3026097E-2,1.681228E-2,4.3775905E-2,2.2079887E-2,7.510882E-2,9.552123E-2,1.243154E-1,2.8635694E-2,-6.711745E-2,1.8918985E-1,1.2927943E-1,1.1835379E-1,1.4725788E-1,-1.9237995E-2,1.9747512E-1,1.5991002E-1,-4.8540022E-2,2.2544818E-1,1.8731686E-1,-2.2881909E-1,-1.6624908E-1,-1.7904893E-1,-1.0471063E-1,-9.9224985E-2,-1.8750717E-1,-1.529686E-1,-8.6168915E-2,-2.3459295E-2,-9.863008E-2,-1.5968549E-1,-9.3193196E-2,-7.469654E-2,-7.0607187E-3,-8.389378E-3,-1.7277852E-1,7.786715E-2,-2.3133345E-2,-2.6095243E-2,-9.376391E-2,-8.6741673E-4,3.7601978E-2,1.4417106E-1,2.9948108E-2,1.095692E-1,1.789566E-1,2.647439E-2,1.16397E-1],"split_indices":[5,4,4,4,4,4,4,2,3,1,4,4,4,3,4,4,2,2,4,2,9,1,7,2,1,2,3,2,0,1,3,3,3,8,4,2,2,8,9,4,4,0,3,4,0,1,3,3,3,3,8,3,2,1,1,3,3,4,2,3,8,0,0,0,0,0,0,0,0,0,0,0,0,0,0,0,0,0,0,0,0,0,0,0,0,0,0,0,0,0,0,0,0,0,0,0,0,0,0,0,0,0,0,0,0,0,0,0,0,0,0,0,0,0,0,0,0,0,0,0,0],"split_type":[0,0,0,0,0,0,0,0,0,0,0,0,0,0,0,0,0,0,0,0,0,0,0,0,0,0,0,0,0,0,0,0,0,0,0,0,0,0,0,0,0,0,0,0,0,0,0,0,0,0,0,0,0,0,0,0,0,0,0,0,0,0,0,0,0,0,0,0,0,0,0,0,0,0,0,0,0,0,0,0,0,0,0,0,0,0,0,0,0,0,0,0,0,0,0,0,0,0,0,0,0,0,0,0,0,0,0,0,0,0,0,0,0,0,0,0,0,0,0,0,0],"sum_hessian":[9.411E3,5.487E3,3.924E3,3.925E3,1.562E3,2.611E3,1.313E3,1.397E3,2.528E3,8.81E2,6.81E2,1.237E3,1.374E3,7.55E2,5.58E2,5.65E2,8.32E2,1.291E3,1.237E3,7.69E2,1.12E2,3.68E2,3.13E2,6.46E2,5.91E2,8.21E2,5.53E2,7.42E2,1.3E1,4.47E2,1.11E2,2.28E2,3.37E2,7.96E2,3.6E1,5.2E2,7.71E2,2.4E2,9.97E2,5.2E1,7.17E2,3E0,1.09E2,2.48E2,1.2E2,4E0,3.09E2,3.57E2,2.89E2,1.18E2,4.73E2,1.73E2,6.48E2,5.37E2,1.6E1,2.02E2,5.4E2,3.62E2,8.5E1,9.4E1,1.7E1,1.93E2,3.5E1,3E1,3.07E2,6.24E2,1.72E2,2.9E1,7E0,2.33E2,2.87E2,7.42E2,2.9E1,7.9E1,1.61E2,2.84E2,7.13E2,3.3E1,1.9E1,4.55E2,2.62E2,2E0,1E0,5.8E1,5.1E1,5.3E1,1.95E2,2E0,1.18E2,2E0,2E0,2E2,1.09E2,2.02E2,1.55E2,2.13E2,7.6E1,1.09E2,9E0,4.4E2,3.3E1,5.7E1,1.16E2,2.06E2,4.42E2,5.05E2,3.2E1,1E0,1.5E1,4.6E1,1.56E2,3.52E2,1.88E2,2.38E2,1.24E2,4.1E1,4.4E1,6.5E1,2.9E1,1.2E1,5E0],"tree_param":{"num_deleted":"0","num_feature":"10","num_nodes":"121","size_leaf_vector":"1"}},{"base_weights":[1.3982657E-4,1.4243011E-1,-1.9881284E-1,5.161258E-2,3.0929354E-1,-2.8947455E-1,8.797413E-3,-5.8103032E-2,9.410028E-2,2.4394011E-1,4.289102E-1,-3.7963188E-1,-2.1078216E-1,-3.4883656E-2,2.2348307E-1,-1.2895255E-1,4.088486E-2,1.512508E-1,4.0504564E-2,2.9903513E-1,1.9019195E-1,3.8585663E-1,5.2063185E-1,-4.3521652E-1,-3.3196706E-1,-1.9515064E-1,-3.93769E-1,-8.6295985E-2,3.4885865E-2,1.6458635E-1,3.6012885E-1,4.6005434E-1,-1.4222969E-1,1.1446888E-1,-1.719969E-1,2.6390815E-1,8.261408E-2,-4.2135153E-2,6.403082E-2,4.6923083E-1,2.2840899E-1,7.113601E-2,2.232796E-1,3.3327818E-1,4.73587E-1,1.7819194E-1,5.262791E-1,-4.6809137E-1,-3.2860908E-1,-3.8200507E-1,-2.82694E-1,-2.478085E-1,-1.433648E-1,-4.236667E-1,-7.530291E-2,-2.5886057E-2,-1.1627504E-1,-4.4290956E-2,7.068124E-2,1.0336559E-1,2.8743374E-1,4.203867E-1,1.8298328E-1,1.8893099E-1,9.439523E-2,-6.0896415E-2,-1.8464202E-2,5.6792013E-2,-1.9232538E-2,7.763439E-2,-5.8695167E-2,3.5094183E-2,1.123886E-1,-4.759885E-2,3.0078E-2,-3.718289E-2,4.0802397E-2,5.5587377E-2,1.2363628E-2,5.6892976E-2,1.4536849E-1,7.938409E-2,4.3556884E-2,-2.1668185E-2,2.5913915E-2,6.2098328E-2,1.21371016E-1,1.0878932E-1,8.77403E-2,2.698517E-3,1.4451984E-1,1.2792797E-1,-3.8832E-2,1.4068896E-1,1.6559902E-1,-1.10534206E-1,-1.6560556E-1,-5.6100834E-2,-1.15439296E-1,-7.978539E-2,-1.4834027E-1,-6.544841E-2,-1.3208048E-1,-4.1817684E-2,-1.22609735E-1,-3.5903536E-2,-6.7759976E-2,-4.9306545E-2,-1.3135974E-1,-3.938842E-2,-2.0281794E-3,2.2543672E-2,-3.4997478E-2,-9.539502E-2,-2.1708759E-2,3.9513968E-2,-2.3068886E-2,1.2851545E-2,7.647842E-2,6.381641E-2,-2.4299019E-3,-2.4726296E-2,1.0002795E-1,-4.5610428E-2,1.3117036E-1,6.6231735E-2,-6.324649E-2],"categories":[],"categories_nodes":[],"categories_segments":[],"categories_sizes":[],"default_left":[0,0,0,0,0,0,0,0,0,0,0,0,0,0,0,0,0,0,0,0,0,0,0,0,0,0,0,0,0,0,0,0,0,0,0,0,0,0,0,0,0,0,0,0,0,0,0,0,0,0,0,0,0,0,0,0,0,0,0,0,0,0,0,0,0,0,0,0,0,0,0,0,0,0,0,0,0,0,0,0,0,0,0,0,0,0,0,0,0,0,0,0,0,0,0,0,0,0,0,0,0,0,0,0,0,0,0,0,0,0,0,0,0,0,0,0,0,0,0,0,0,0,0,0,0,0,0],"id":2,"left_children":[1,3,5,7,9,11,13,15,17,19,21,23,25,27,29,31,33,35,37,39,41,43,45,47,49,51,53,55,57,59,61,63,65,67,69,71,73,75,77,79,81,83,85,87,89,91,93,95,97,99,101,103,105,107,109,111,113,115,117,119,121,123,125,-1,-1,-1,-1,-1,-1,-1,-1,-1,-1,-1,-1,-1,-1,-1,-1,-1,-1,-1,-1,-1,-1,-1,-1,-1,-1,-1,-1,-1,-1,-1,-1,-1,-1,-1,-1,-1,-1,-1,-1,-1,-1,-1,-1,-1,-1,-1,-1,-1,-1,-1,-1,-1,-1,-1,-1,-1,-1,-1,-1,-1,-1,-1,-1],"loss_changes":[2.664729E2,8.314987E1,7.3880066E1,1.657733E1,1.5014145E1,1.9302704E1,1.1204767E1,6.9694247E0,7.8444023E0,3.6535797E0,2.4922943E0,3.2256165E0,4.1021347E0,3.5649147E0,1.5664215E0,4.593401E0,6.5205374E0,9.56641E0,2.5768235E0,7.3093224E0,2.4934368E0,2.0009232E0,3.2199478E-1,1.8929291E0,1.590744E0,3.640377E0,1.0535374E0,1.0329013E0,1.1991477E0,1.0457652E0,5.6354046E-1,1.2264657E-1,2.7670126E0,4.1417165E0,1.1409044E0,7.5858192E0,3.3027382E0,4.3014655E0,2.84515E0,6.796379E-1,1.2812424E0,3.1219316E-1,1.3865242E0,2.485199E-1,6.503792E-1,4.3702114E-1,5.215454E-2,3.5097046E0,1.0499325E0,4.293022E0,3.4731598E0,1.1577618E1,1.3057089E0,3.1096268E-1,4.1328266E-2,1.7604014E0,3.3605623E0,7.676334E-1,1.4818918E0,1.1840918E0,8.2698107E-1,4.9081326E-1,2.995301E-1,0E0,0E0,0E0,0E0,0E0,0E0,0E0,0E0,0E0,0E0,0E0,0E0,0E0,0E0,0E0,0E0,0E0,0E0,0E0,0E0,0E0,0E0,0E0,0E0,0E0,0E0,0E0,0E0,0E0,0E0,0E0,0E0,0E0,0E0,0E0,0E0,0E0,0E0,0E0,0E0,0E0,0E0,0E0,0E0,0E0,0E0,0E0,0E0,0E0,0E0,0E0,0E0,0E0,0E0,0E0,0E0,0E0,0E0,0E0,0E0,0E0,0E0,0E0,0E0],"parents":[2147483647,0,0,1,1,2,2,3,3,4,4,5,5,6,6,7,7,8,8,9,9,10,10,11,11,12,12,13,13,14,14,15,15,16,16,17,17,18,18,19,19,20,20,21,21,22,22,23,23,24,24,25,25,26,26,27,27,28,28,29,29,30,30,31,31,32,32,33,33,34,34,35,35,36,36,37,37,38,38,39,39,40,40,41,41,42,42,43,43,44,44,45,45,46,46,47,47,48,48,49,49,50,50,51,51,52,52,53,53,54,54,55,55,56,56,57,57,58,58,59,59,60,60,61,61,62,62],"right_children":[2,4,6,8,10,12,14,16,18,20,22,24,26,28,30,32,34,36,38,40,42,44,46,48,50,52,54,56,58,60,62,64,66,68,70,72,74,76,78,80,82,84,86,88,90,92,94,96,98,100,102,104,106,108,110,112,114,116,118,120,122,124,126,-1,-1,-1,-1,-1,-1,-1,-1,-1,-1,-1,-1,-1,-1,-1,-1,-1,-1,-1,-1,-1,-1,-1,-1,-1,-1,-1,-1,-1,-1,-1,-1,-1,-1,-1,-1,-1,-1,-1,-1,-1,-1,-1,-1,-1,-1,-1,-1,-1,-1,-1,-1,-1,-1,-1,-1,-1,-1,-1,-1,-1,-1,-1,-1],"split_conditions":[2.00001E0,4.5607E0,3.6531E0,2.535E0,6.2957E0,2.3958E0,5.653E0,3.405E1,-1.1828E2,-1.1832E2,8.3065E0,1.8446E0,3.937E1,4.4625E0,7.0217E0,-1.1837E2,3.469E1,3.417E1,-1.1815E2,3.418E1,1.595E3,2.7E1,6.9E1,5.44E2,3.698E1,3.683E1,7.78E2,3.487E1,3.42E2,2.5E1,-1.1762E2,-1.1847E2,-1.1822E2,-1.1823E2,2.49E2,3.4E1,-1.2286E2,3.409E1,-1.181E2,6.2E2,-1.1903E2,-1.1825E2,3.411E1,-1.1795E2,7.8E1,4.4E1,1.9E1,7.38E2,1.9E1,3.454E1,3.937E1,3.487E1,3.5E1,1.2E1,1.3E1,-1.1752E2,3.681E1,-1.2166E2,3.2E1,-1.2092E2,1.02E2,1.4E1,1.12185E1,1.8893099E-1,9.439523E-2,-6.0896415E-2,-1.8464202E-2,5.6792013E-2,-1.9232538E-2,7.763439E-2,-5.8695167E-2,3.5094183E-2,1.123886E-1,-4.759885E-2,3.0078E-2,-3.718289E-2,4.0802397E-2,5.5587377E-2,1.2363628E-2,5.6892976E-2,1.4536849E-1,7.938409E-2,4.3556884E-2,-2.1668185E-2,2.5913915E-2,6.2098328E-2,1.21371016E-1,1.0878932E-1,8.77403E-2,2.698517E-3,1.4451984E-1,1.2792797E-1,-3.8832E-2,1.4068896E-1,1.6559902E-1,-1.10534206E-1,-1.6560556E-1,-5.6100834E-2,-1.15439296E-1,-7.978539E-2,-1.4834027E-1,-6.544841E-2,-1.3208048E-1,-4.1817684E-2,-1.22609735E-1,-3.5903536E-2,-6.7759976E-2,-4.9306545E-2,-1.3135974E-1,-3.938842E-2,-2.0281794E-3,2.2543672E-2,-3.4997478E-2,-9.539502E-2,-2.1708759E-2,3.9513968E-2,-2.3068886E-2,1.2851545E-2,7.647842E-2,6.381641E-2,-2.4299019E-3,-2.4726296E-2,1.0002795E-1,-4.5610428E-2,1.3117036E-1,6.6231735E-2,-6.324649E-2],"split_indices":[5,4,4,4,4,4,4,2,3,3,4,4,2,4,4,3,2,2,3,2,9,1,7,8,2,2,0,2,8,1,3,3,3,3,7,2,3,2,3,9,3,3,2,3,0,1,1,7,1,2,2,2,1,1,1,3,2,3,1,3,0,0,4,0,0,0,0,0,0,0,0,0,0,0,0,0,0,0,0,0,0,0,0,0,0,0,0,0,0,0,0,0,0,0,0,0,0,0,0,0,0,0,0,0,0,0,0,0,0,0,0,0,0,0,0,0,0,0,0,0,0,0,0,0,0,0,0],"split_type":[0,0,0,0,0,0,0,0,0,0,0,0,0,0,0,0,0,0,0,0,0,0,0,0,0,0,0,0,0,0,0,0,0,0,0,0,0,0,0,0,0,0,0,0,0,0,0,0,0,0,0,0,0,0,0,0,0,0,0,0,0,0,0,0,0,0,0,0,0,0,0,0,0,0,0,0,0,0,0,0,0,0,0,0,0,0,0,0,0,0,0,0,0,0,0,0,0,0,0,0,0,0,0,0,0,0,0,0,0,0,0,0,0,0,0,0,0,0,0,0,0,0,0,0,0,0,0],"sum_hessian":[9.411E3,5.487E3,3.924E3,3.554E3,1.933E3,2.731E3,1.193E3,9.92E2,2.562E3,1.252E3,6.81E2,1.271E3,1.46E3,9.92E2,2.01E2,5.78E2,4.14E2,1.239E3,1.323E3,6.16E2,6.36E2,4.67E2,2.14E2,5.83E2,6.88E2,1.347E3,1.13E2,5.71E2,4.21E2,1.42E2,5.9E1,1.2E1,5.66E2,3.08E2,1.06E2,4.68E2,7.71E2,2.93E2,1.03E3,1.79E2,4.37E2,1.39E2,4.97E2,2.95E2,1.72E2,4E0,2.1E2,4.43E2,1.4E2,3.38E2,3.5E2,6.66E2,6.81E2,1.03E2,1E1,1.9E2,3.81E2,1.31E2,2.9E2,9.6E1,4.6E1,4.3E1,1.6E1,4E0,8E0,3.22E2,2.44E2,2.17E2,9.1E1,5E0,1.01E2,2.02E2,2.66E2,5.2E1,7.19E2,2.01E2,9.2E1,1.62E2,8.68E2,1E1,1.69E2,3.03E2,1.34E2,1.3E1,1.26E2,4.58E2,3.9E1,1.67E2,1.28E2,3E0,1.69E2,2E0,2E0,7.1E1,1.39E2,2.05E2,2.38E2,4.1E1,9.9E1,1.68E2,1.7E2,2.5E2,1E2,3.99E2,2.67E2,5.31E2,1.5E2,6E0,9.7E1,5E0,5E0,9E1,1E2,6.7E1,3.14E2,2E1,1.11E2,2.53E2,3.7E1,4.8E1,4.8E1,5E0,4.1E1,1E0,4.2E1,1.5E1,1E0],"tree_param":{"num_deleted":"0","num_feature":"10","num_nodes":"127","size_leaf_vector":"1"}},{"base_weights":[1.5657282E-4,1.0001343E-1,-1.3946497E-1,7.0719775E-3,1.855379E-1,-2.2698933E-1,-2.8513532E-2,-2.08315E-2,7.617626E-2,1.4062096E-1,2.9007548E-1,-2.910856E-1,-1.8400481E-1,-7.875247E-2,7.704824E-2,-8.891279E-2,6.630467E-3,1.0784456E-1,-6.5398216E-2,1.813427E-1,8.223402E-2,2.4397121E-1,3.4032783E-1,-2.0739512E-1,-3.1559062E-1,-1.6966377E-1,-2.943515E-1,-7.218955E-2,-3.6575443E-1,4.675747E-2,2.1561532E-1,2.2909455E-1,-1.12807944E-1,-1.5016356E-1,1.6728865E-2,1.9197449E-1,5.2219413E-2,-1.9935307E-1,-1.116229E-2,2.400779E-1,1.3551445E-1,-5.0056674E-2,9.791834E-2,2.0807563E-1,3.1390896E-1,2.043263E-2,3.4424606E-1,-2.6790968E-1,-1.1557003E-1,-3.0459425E-1,-5.1491576E-1,-2.1476682E-1,-1.09697185E-1,-1.0346282E-1,-3.2462436E-1,1.3700336E-1,-8.243063E-2,-8.5830694E-4,-3.801557E-1,1.7613228E-2,1.5564145E-1,1.8137161E-1,3.9757156E-1,1.6815495E-1,4.483104E-2,-5.322619E-2,-1.6719114E-2,7.627638E-2,-5.0693337E-2,2.6539298E-2,-4.7647273E-3,3.8426552E-2,8.925654E-2,-2.0530026E-2,2.1970846E-2,6.661463E-2,-6.821266E-2,4.5210745E-2,-7.4898354E-3,1.00726485E-1,4.143234E-2,4.5018967E-2,1.2676844E-2,-2.9922446E-2,-1.0908127E-4,5.86414E-2,1.9174961E-2,9.819597E-2,5.9109803E-2,3.828945E-2,9.9603906E-2,9.8658375E-2,-3.2107603E-2,1.1167902E-1,8.703835E-2,-6.983718E-2,-1.0426535E-1,1.1031089E-2,-7.249343E-2,-4.70211E-2,-9.8954484E-2,-3.9437868E-2,-1.7294875E-1,-4.0067304E-2,-8.584962E-2,-4.8911747E-2,-9.978024E-3,6.909018E-2,-4.4506263E-2,-8.163123E-2,-1.20649286E-1,9.3741655E-2,7.3788227E-3,-2.0252353E-2,-5.5660762E-2,-2.0185748E-1,-1.0197721E-1,2.2677617E-2,-9.576015E-3,8.496652E-2,1.3314591E-2,9.78007E-2,3.7968308E-2,-3.8768865E-2,1.3332927E-1],"categories":[],"categories_nodes":[],"categories_segments":[],"categories_sizes":[],"default_left":[0,0,0,0,0,0,0,0,0,0,0,0,0,0,0,0,0,0,0,0,0,0,0,0,0,0,0,0,0,0,0,0,0,0,0,0,0,0,0,0,0,0,0,0,0,0,0,0,0,0,0,0,0,0,0,0,0,0,0,0,0,0,0,0,0,0,0,0,0,0,0,0,0,0,0,0,0,0,0,0,0,0,0,0,0,0,0,0,0,0,0,0,0,0,0,0,0,0,0,0,0,0,0,0,0,0,0,0,0,0,0,0,0,0,0,0,0,0,0,0,0,0,0,0,0],"id":3,"left_children":[1,3,5,7,9,11,13,15,17,19,21,23,25,27,29,31,33,35,37,39,41,43,45,47,49,51,53,55,57,59,61,63,65,67,69,71,73,75,77,79,81,83,85,87,89,91,93,95,97,99,101,103,105,107,109,111,113,-1,115,117,119,121,123,-1,-1,-1,-1,-1,-1,-1,-1,-1,-1,-1,-1,-1,-1,-1,-1,-1,-1,-1,-1,-1,-1,-1,-1,-1,-1,-1,-1,-1,-1,-1,-1,-1,-1,-1,-1,-1,-1,-1,-1,-1,-1,-1,-1,-1,-1,-1,-1,-1,-1,-1,-1,-1,-1,-1,-1,-1,-1,-1,-1,-1,-1],"loss_changes":[1.3123764E2,4.3621536E1,3.8109016E1,5.0748124E0,1.3378967E1,5.991234E0,9.191404E0,3.506176E0,3.4010043E0,4.7427025E0,1.9048309E0,1.737236E0,2.0326118E0,2.1849103E0,2.336211E0,4.1216154E0,2.1194756E0,2.8867345E0,1.0076329E0,3.1383286E0,1.7146106E0,1.0668983E0,5.04364E-1,1.0915022E0,1.3292313E0,3.1327934E0,8.3322525E-1,2.472868E0,1.3479209E-1,1.4569955E0,5.509777E-1,9.194505E-1,1.8414559E0,6.592772E-1,2.9420128E0,1.6206675E0,9.533744E-1,5.2283657E-1,2.2719777E-1,4.978071E0,8.945694E-1,2.172349E-1,2.4321184E0,3.3186626E-1,4.668522E-1,2.710666E-1,5.030441E-1,2.5752163E-1,1.5837989E0,2.3567238E0,7.270651E-1,3.8175945E0,2.0454621E0,3.6379418E-1,4.1591072E-1,1.0574089E0,1.6738E0,0E0,6.567693E-2,1.0477777E0,1.3642979E0,6.4048815E-1,4.277165E-1,0E0,0E0,0E0,0E0,0E0,0E0,0E0,0E0,0E0,0E0,0E0,0E0,0E0,0E0,0E0,0E0,0E0,0E0,0E0,0E0,0E0,0E0,0E0,0E0,0E0,0E0,0E0,0E0,0E0,0E0,0E0,0E0,0E0,0E0,0E0,0E0,0E0,0E0,0E0,0E0,0E0,0E0,0E0,0E0,0E0,0E0,0E0,0E0,0E0,0E0,0E0,0E0,0E0,0E0,0E0,0E0,0E0,0E0,0E0,0E0,0E0,0E0],"parents":[2147483647,0,0,1,1,2,2,3,3,4,4,5,5,6,6,7,7,8,8,9,9,10,10,11,11,12,12,13,13,14,14,15,15,16,16,17,17,18,18,19,19,20,20,21,21,22,22,23,23,24,24,25,25,26,26,27,27,28,28,29,29,30,30,31,31,32,32,33,33,34,34,35,35,36,36,37,37,38,38,39,39,40,40,41,41,42,42,43,43,44,44,45,45,46,46,47,47,48,48,49,49,50,50,51,51,52,52,53,53,54,54,55,55,56,56,58,58,59,59,60,60,61,61,62,62],"right_children":[2,4,6,8,10,12,14,16,18,20,22,24,26,28,30,32,34,36,38,40,42,44,46,48,50,52,54,56,58,60,62,64,66,68,70,72,74,76,78,80,82,84,86,88,90,92,94,96,98,100,102,104,106,108,110,112,114,-1,116,118,120,122,124,-1,-1,-1,-1,-1,-1,-1,-1,-1,-1,-1,-1,-1,-1,-1,-1,-1,-1,-1,-1,-1,-1,-1,-1,-1,-1,-1,-1,-1,-1,-1,-1,-1,-1,-1,-1,-1,-1,-1,-1,-1,-1,-1,-1,-1,-1,-1,-1,-1,-1,-1,-1,-1,-1,-1,-1,-1,-1,-1,-1,-1,-1],"split_conditions":[2.00001E0,3.7784E0,3.1326E0,6.41E2,6.0062E0,2.1111E0,4.6161E0,2.2419E0,-1.1796E2,-1.1811E2,7.2137E0,1.9E1,3.937E1,-1.1625E2,6.4504E0,3.72E2,6.57E2,2.061E3,2.7708E0,3.419E1,3.296E1,2.8E1,6.7E1,3.74E1,-1.1657E2,3.745E1,1.5E1,3.391E1,3.276E1,2.8E1,3.4E1,2E1,3.401E1,1.1E1,8.95E2,7.41E2,7.19E2,7E0,1.319E3,-1.1834E2,-1.1848E2,4.5766E0,3.369E1,-1.2195E2,1.077E3,3.39E1,-1.1808E2,-1.1657E2,3.891E1,3.425E1,3.276E1,3.454E1,-1.2121E2,3.972E1,2.5E1,4.74E2,-1.1746E2,-8.5830694E-4,2.5E1,-1.2076E2,3.42E1,-1.2184E2,1.4E1,1.6815495E-1,4.483104E-2,-5.322619E-2,-1.6719114E-2,7.627638E-2,-5.0693337E-2,2.6539298E-2,-4.7647273E-3,3.8426552E-2,8.925654E-2,-2.0530026E-2,2.1970846E-2,6.661463E-2,-6.821266E-2,4.5210745E-2,-7.4898354E-3,1.00726485E-1,4.143234E-2,4.5018967E-2,1.2676844E-2,-2.9922446E-2,-1.0908127E-4,5.86414E-2,1.9174961E-2,9.819597E-2,5.9109803E-2,3.828945E-2,9.9603906E-2,9.8658375E-2,-3.2107603E-2,1.1167902E-1,8.703835E-2,-6.983718E-2,-1.0426535E-1,1.1031089E-2,-7.249343E-2,-4.70211E-2,-9.8954484E-2,-3.9437868E-2,-1.7294875E-1,-4.0067304E-2,-8.584962E-2,-4.8911747E-2,-9.978024E-3,6.909018E-2,-4.4506263E-2,-8.163123E-2,-1.20649286E-1,9.3741655E-2,7.3788227E-3,-2.0252353E-2,-5.5660762E-2,-2.0185748E-1,-1.0197721E-1,2.2677617E-2,-9.576015E-3,8.496652E-2,1.3314591E-2,9.78007E-2,3.7968308E-2,-3.8768865E-2,1.3332927E-1],"split_indices":[5,4,4,8,4,4,4,4,3,3,4,1,2,3,4,7,9,7,4,2,2,1,9,2,3,2,1,2,2,1,1,1,2,1,7,0,0,1,7,3,3,4,2,3,9,2,3,3,2,2,2,2,3,2,1,8,3,0,0,3,2,3,0,0,0,0,0,0,0,0,0,0,0,0,0,0,0,0,0,0,0,0,0,0,0,0,0,0,0,0,0,0,0,0,0,0,0,0,0,0,0,0,0,0,0,0,0,0,0,0,0,0,0,0,0,0,0,0,0,0,0,0,0,0,0],"split_type":[0,0,0,0,0,0,0,0,0,0,0,0,0,0,0,0,0,0,0,0,0,0,0,0,0,0,0,0,0,0,0,0,0,0,0,0,0,0,0,0,0,0,0,0,0,0,0,0,0,0,0,0,0,0,0,0,0,0,0,0,0,0,0,0,0,0,0,0,0,0,0,0,0,0,0,0,0,0,0,0,0,0,0,0,0,0,0,0,0,0,0,0,0,0,0,0,0,0,0,0,0,0,0,0,0,0,0,0,0,0,0,0,0,0,0,0,0,0,0,0,0,0,0,0,0],"sum_hessian":[9.411E3,5.487E3,3.924E3,2.63E3,2.857E3,2.193E3,1.731E3,1.874E3,7.56E2,2E3,8.57E2,8.78E2,1.315E3,1.173E3,5.58E2,5.38E2,1.336E3,6.18E2,1.38E2,1.177E3,8.23E2,4.5E2,4.07E2,2.01E2,6.77E2,1.166E3,1.49E2,1.148E3,2.5E1,4.59E2,9.9E1,3.7E1,5.01E2,8E1,1.256E3,2.45E2,3.73E2,3.9E1,9.9E1,5.14E2,6.63E2,8.7E1,7.36E2,3E2,1.5E2,5E0,4.02E2,1.2E2,8.1E1,6.44E2,3.3E1,6.64E2,5.02E2,2.1E1,1.28E2,5.3E1,1.095E3,1E0,2.4E1,3.63E2,9.6E1,8.5E1,1.4E1,6E0,3.1E1,2.34E2,2.67E2,3E0,7.7E1,3.92E2,8.64E2,1.54E2,9.1E1,5.5E1,3.18E2,2E0,3.7E1,7E0,9.2E1,2.64E2,2.5E2,5.73E2,9E1,4.3E1,4.4E1,1.89E2,5.47E2,2.3E1,2.77E2,1.4E1,1.36E2,1E0,4E0,2.61E2,1.41E2,8.6E1,3.4E1,3.7E1,4.4E1,9.5E1,5.49E2,5E0,2.8E1,3.12E2,3.52E2,2.95E2,2.07E2,2E0,1.9E1,7.9E1,4.9E1,2E1,3.3E1,9.58E2,1.37E2,1E0,2.3E1,1.67E2,1.96E2,4.4E1,5.2E1,2.2E1,6.3E1,1E0,1.3E1],"tree_param":{"num_deleted":"0","num_feature":"10","num_nodes":"125","size_leaf_vector":"1"}},{"base_weights":[1.3829523E-4,-7.9621084E-2,8.7366216E-2,-3.3204462E-3,-1.469525E-1,5.0854374E-2,1.7997034E-1,8.849322E-5,-3.9296666E-1,-1.8459004E-1,-9.7887695E-2,8.8817395E-2,-2.1994116E-2,1.4589265E-1,2.32054E-1,4.4498067E-2,-2.8654702E-2,-1.5484266E-1,-2.4526466E-1,-1.7561619E-1,-3.3511335E-1,-1.8156767E-1,-9.556033E-2,1.1791579E-1,4.447683E-2,3.4818858E-2,-5.274377E-2,1.7427284E-1,1.0172221E-1,2.0696537E-1,2.7884E-1,9.48686E-2,-4.475594E-2,-7.094334E-2,1.7359756E-2,-9.245529E-2,-9.5812924E-2,-7.559065E-2,-1.9017199E-1,-1.694545E-1,-3.6386856E-1,3.382138E-2,-1.0386087E-1,8.4207945E-2,1.703316E-1,6.674944E-2,-8.834034E-3,2.1869959E-1,-1.8093493E-2,1.6087455E-3,-1.8423276E-1,2.8001884E-1,1.5041167E-1,1.0978744E-1,-1.4637432E-1,1.787776E-1,2.8014633E-1,7.468691E-2,2.8965408E-1,1.1459455E-1,2.4337048E-2,5.698368E-3,-7.017202E-2,-3.654672E-2,9.080758E-3,1.6272413E-2,-3.5013836E-2,-6.2699323E-3,-5.6801606E-2,7.3796967E-3,-3.572081E-2,-7.641296E-2,-4.5846347E-2,1.2177444E-2,-6.9128975E-2,-1.7458747E-1,-1.00158215E-1,2.722895E-2,-4.814129E-2,-1.263785E-2,-3.713173E-2,3.1429052E-2,-2.2433154E-2,8.064935E-2,3.348877E-2,3.3659287E-2,-1.0950981E-3,-9.687935E-3,1.828161E-2,8.185501E-2,3.1612648E-3,-4.8334102E-4,-9.4093524E-2,1.20194115E-1,-3.646338E-3,-6.928819E-2,-7.7954764E-3,9.821598E-2,5.6083933E-2,4.647761E-2,-9.5135815E-2,2.4262602E-2,5.0124425E-2,-1.0497216E-2,-9.1410615E-2,5.8400545E-2,3.096168E-2,9.0345785E-2,2.4594184E-2,5.8148045E-2,-4.5743898E-2,8.7656334E-2,-1.8120863E-2],"categories":[],"categories_nodes":[],"categories_segments":[],"categories_sizes":[],"default_left":[0,0,0,0,0,0,0,0,0,0,0,0,0,0,0,0,0,0,0,0,0,0,0,0,0,0,0,0,0,0,0,0,0,0,0,0,0,0,0,0,0,0,0,0,0,0,0,0,0,0,0,0,0,0,0,0,0,0,0,0,0,0,0,0,0,0,0,0,0,0,0,0,0,0,0,0,0,0,0,0,0,0,0,0,0,0,0,0,0,0,0,0,0,0,0,0,0,0,0,0,0,0,0,0,0,0,0,0,0,0,0,0,0],"id":4,"left_children":[1,3,5,7,9,11,13,15,17,19,21,23,25,27,29,31,33,-1,35,37,39,-1,41,43,45,47,49,51,53,55,57,59,61,63,65,67,-1,69,71,73,75,77,79,81,83,85,87,89,91,93,95,97,99,101,103,105,107,109,111,-1,-1,-1,-1,-1,-1,-1,-1,-1,-1,-1,-1,-1,-1,-1,-1,-1,-1,-1,-1,-1,-1,-1,-1,-1,-1,-1,-1,-1,-1,-1,-1,-1,-1,-1,-1,-1,-1,-1,-1,-1,-1,-1,-1,-1,-1,-1,-1,-1,-1,-1,-1,-1,-1],"loss_changes":[6.548854E1,2.5260252E1,1.5192482E1,3.063049E0,4.805462E0,8.923614E0,2.2220306E0,2.9205692E0,2.3727417E-1,1.9362411E0,1.2835073E0,2.7313538E0,1.9339957E0,9.487705E-1,5.303612E-1,4.0459447E0,2.704071E0,0E0,9.504664E-2,2.018135E0,3.2895374E-1,0E0,1.2192106E0,2.2471905E0,1.0003569E0,3.7887564E0,5.131668E0,1.1387501E0,6.243603E-1,6.306429E-1,3.5809612E-1,2.2381945E0,3.9234421E0,3.731996E0,3.2995753E0,3.0705571E-2,0E0,7.8267395E-1,2.8971138E0,1.8866041E-1,2.572708E-1,7.7793616E-1,1.3026915E0,2.5601654E0,2.8610687E0,1.9009373E0,4.0953216E-1,9.777942E-1,1.4755247E0,2.8003213E0,1.5468607E0,3.1352997E-1,8.594799E-1,4.7515178E-1,1.656894E-1,2.6932764E-1,3.499565E-1,3.0020067E-1,1.6221905E-1,0E0,0E0,0E0,0E0,0E0,0E0,0E0,0E0,0E0,0E0,0E0,0E0,0E0,0E0,0E0,0E0,0E0,0E0,0E0,0E0,0E0,0E0,0E0,0E0,0E0,0E0,0E0,0E0,0E0,0E0,0E0,0E0,0E0,0E0,0E0,0E0,0E0,0E0,0E0,0E0,0E0,0E0,0E0,0E0,0E0,0E0,0E0,0E0,0E0,0E0,0E0,0E0,0E0,0E0],"parents":[2147483647,0,0,1,1,2,2,3,3,4,4,5,5,6,6,7,7,8,8,9,9,10,10,11,11,12,12,13,13,14,14,15,15,16,16,18,18,19,19,20,20,22,22,23,23,24,24,25,25,26,26,27,27,28,28,29,29,30,30,31,31,32,32,33,33,34,34,35,35,37,37,38,38,39,39,40,40,41,41,42,42,43,43,44,44,45,45,46,46,47,47,48,48,49,49,50,50,51,51,52,52,53,53,54,54,55,55,56,56,57,57,58,58],"right_children":[2,4,6,8,10,12,14,16,18,20,22,24,26,28,30,32,34,-1,36,38,40,-1,42,44,46,48,50,52,54,56,58,60,62,64,66,68,-1,70,72,74,76,78,80,82,84,86,88,90,92,94,96,98,100,102,104,106,108,110,112,-1,-1,-1,-1,-1,-1,-1,-1,-1,-1,-1,-1,-1,-1,-1,-1,-1,-1,-1,-1,-1,-1,-1,-1,-1,-1,-1,-1,-1,-1,-1,-1,-1,-1,-1,-1,-1,-1,-1,-1,-1,-1,-1,-1,-1,-1,-1,-1,-1,-1,-1,-1,-1,-1],"split_conditions":[3.55E0,2.00001E0,5.6169E0,3.972E1,2.5592E0,2.00001E0,7.0217E0,-1.183E2,1.858E3,-1.1644E2,1.27E2,-1.181E2,3.487E1,3.422E1,9.042E0,3.469E1,-1.1816E2,-1.5484266E-1,2.062E3,3.411E1,3.276E1,-1.8156767E-1,1.23E2,4.98E2,3.39E1,-1.1799E2,-1.2065E2,-1.1838E2,-1.182E2,3.1E1,3.9E1,-1.1947E2,-1.2166E2,3.405E1,-1.1776E2,9.02E2,-9.5812924E-2,-1.1746E2,3.68E1,1.35E2,1.2542E0,-1.1797E2,3.436E1,1.296E3,3.416E1,-1.1778E2,4.8497E0,3.454E1,-1.1625E2,3.708E1,3.735E1,3.415E1,-1.1625E2,5.32E2,3.469E1,-1.1772E2,-1.1794E2,4.4E1,3.793E1,1.1459455E-1,2.4337048E-2,5.698368E-3,-7.017202E-2,-3.654672E-2,9.080758E-3,1.6272413E-2,-3.5013836E-2,-6.2699323E-3,-5.6801606E-2,7.3796967E-3,-3.572081E-2,-7.641296E-2,-4.5846347E-2,1.2177444E-2,-6.9128975E-2,-1.7458747E-1,-1.00158215E-1,2.722895E-2,-4.814129E-2,-1.263785E-2,-3.713173E-2,3.1429052E-2,-2.2433154E-2,8.064935E-2,3.348877E-2,3.3659287E-2,-1.0950981E-3,-9.687935E-3,1.828161E-2,8.185501E-2,3.1612648E-3,-4.8334102E-4,-9.4093524E-2,1.20194115E-1,-3.646338E-3,-6.928819E-2,-7.7954764E-3,9.821598E-2,5.6083933E-2,4.647761E-2,-9.5135815E-2,2.4262602E-2,5.0124425E-2,-1.0497216E-2,-9.1410615E-2,5.8400545E-2,3.096168E-2,9.0345785E-2,2.4594184E-2,5.8148045E-2,-4.5743898E-2,8.7656334E-2,-1.8120863E-2],"split_indices":[4,5,4,2,4,5,4,3,9,3,9,3,2,2,4,2,3,0,9,2,2,0,0,8,2,3,3,3,3,1,0,3,3,2,3,7,0,3,2,0,4,3,2,7,2,3,4,2,3,2,2,2,3,8,2,3,3,1,2,0,0,0,0,0,0,0,0,0,0,0,0,0,0,0,0,0,0,0,0,0,0,0,0,0,0,0,0,0,0,0,0,0,0,0,0,0,0,0,0,0,0,0,0,0,0,0,0,0,0,0,0,0,0],"split_type":[0,0,0,0,0,0,0,0,0,0,0,0,0,0,0,0,0,0,0,0,0,0,0,0,0,0,0,0,0,0,0,0,0,0,0,0,0,0,0,0,0,0,0,0,0,0,0,0,0,0,0,0,0,0,0,0,0,0,0,0,0,0,0,0,0,0,0,0,0,0,0,0,0,0,0,0,0,0,0,0,0,0,0,0,0,0,0,0,0,0,0,0,0,0,0,0,0,0,0,0,0,0,0,0,0,0,0,0,0,0,0,0,0],"sum_hessian":[9.411E3,4.916E3,4.495E3,2.305E3,2.611E3,3.225E3,1.27E3,2.286E3,1.9E1,1.476E3,1.135E3,2.12E3,1.105E3,7.7E2,5E2,8.98E2,1.388E3,9E0,1E1,1.395E3,8.1E1,4E0,1.131E3,1.279E3,8.41E2,3.88E2,7.17E2,4.67E2,3.03E2,3.29E2,1.71E2,5.74E2,3.24E2,7.23E2,6.65E2,4E0,6E0,1.78E2,1.217E3,1.3E1,6.8E1,6.8E1,1.063E3,7.8E2,4.99E2,5.93E2,2.48E2,8.6E1,3.02E2,5.08E2,2.09E2,8.4E1,3.83E2,2.94E2,9E0,2.4E2,8.9E1,9E0,1.62E2,2.5E1,5.49E2,2.43E2,8.1E1,4.81E2,2.42E2,5.22E2,1.43E2,3E0,1E0,5.4E1,1.24E2,4.44E2,7.73E2,3E0,1E1,6E0,6.2E1,5.3E1,1.5E1,2.6E2,8.03E2,6.91E2,8.9E1,1.85E2,3.14E2,3.6E2,2.33E2,1.86E2,6.2E1,6.8E1,1.8E1,2.87E2,1.5E1,1.6E1,4.92E2,1.61E2,4.8E1,5.4E1,3E1,3.8E2,3E0,1.97E2,9.7E1,6E0,3E0,1.97E2,4.3E1,8E1,9E0,6E0,3E0,1.61E2,1E0],"tree_param":{"num_deleted":"0","num_feature":"10","num_nodes":"113","size_leaf_vector":"1"}},{"base_weights":[4.7735695E-5,-4.524505E-2,8.037102E-2,8.327298E-3,-9.732811E-2,5.4735012E-2,1.32165E-1,-1.322091E-1,1.5174948E-2,-1.4700423E-1,-7.71981E-2,5.0454542E-2,2.4789898E-1,1.1366005E-1,1.788569E-1,7.824619E-2,-1.428751E-1,7.0276566E-2,-9.185226E-3,-1.4216855E-1,-4.1606095E-1,-7.258921E-2,-2.715321E-1,2.628874E-2,8.044041E-2,3.2406834E-1,3.4327846E-2,8.816206E-2,1.510109E-1,1.8826437E-1,1.145334E-1,-1.18756026E-1,-3.1483847E-1,1.695641E-1,2.0939069E-2,-3.0283011E-2,4.693549E-2,-1.6290651E-1,-7.910448E-2,-2.6980993E-1,-1.633982E-1,-6.2967055E-2,-1.7255902E-1,-1.2613799E-1,-3.0472714E-1,4.9767908E-2,-2.4210613E-2,2.5748575E-1,6.462778E-2,3.4230542E-1,9.358406E-3,2.6111698E-1,-2.523009E-2,4.2398125E-2,1.0871083E-1,1.9981038E-2,1.6520469E-1,1.926428E-1,5.297165E-2,-1.686287E-1,1.3245909E-1,-9.0281256E-2,-2.8718153E-2,-4.5474E-2,-1.1929067E-1,8.401582E-2,3.110245E-2,5.0625544E-2,-8.991977E-3,9.228751E-3,-2.2753067E-2,3.4476817E-2,-5.0455537E-3,-3.9432224E-2,-7.487637E-2,2.7188383E-2,-3.4754597E-2,-3.4344006E-2,-8.9350685E-2,-9.458143E-3,-2.5402842E-2,-3.8127262E-2,-7.779387E-2,-7.5163275E-2,1.6768871E-1,-9.923043E-2,-1.6886102E-2,-2.1659166E-3,2.2031128E-2,-3.816566E-2,2.2062203E-3,4.4007204E-2,1.1021503E-1,1.0441376E-2,2.8878449E-2,2.4027515E-2,1.09529205E-1,1.262312E-2,-8.411837E-3,9.708982E-2,2.0412827E-2,-4.811232E-2,1.1291219E-2,5.7446886E-2,5.8461926E-3,8.501595E-2,3.021121E-2,2.1429563E-2,-3.1649724E-2,9.325321E-2,4.704377E-2,7.923451E-2,5.5631578E-2,-1.5550089E-2,3.1587902E-2,-6.817704E-2,-7.7058794E-3,2.2410192E-2,6.8278104E-2],"categories":[],"categories_nodes":[],"categories_segments":[],"categories_sizes":[],"default_left":[0,0,0,0,0,0,0,0,0,0,0,0,0,0,0,0,0,0,0,0,0,0,0,0,0,0,0,0,0,0,0,0,0,0,0,0,0,0,0,0,0,0,0,0,0,0,0,0,0,0,0,0,0,0,0,0,0,0,0,0,0,0,0,0,0,0,0,0,0,0,0,0,0,0,0,0,0,0,0,0,0,0,0,0,0,0,0,0,0,0,0,0,0,0,0,0,0,0,0,0,0,0,0,0,0,0,0,0,0,0,0,0,0,0,0,0,0,0,0],"id":5,"left_children":[1,3,5,7,9,11,13,15,17,19,21,23,25,27,29,-1,31,33,35,37,39,41,43,45,47,49,51,53,55,57,59,61,63,65,67,69,71,73,75,77,-1,79,81,83,85,87,89,91,93,95,97,99,101,103,105,107,109,111,113,115,117,-1,-1,-1,-1,-1,-1,-1,-1,-1,-1,-1,-1,-1,-1,-1,-1,-1,-1,-1,-1,-1,-1,-1,-1,-1,-1,-1,-1,-1,-1,-1,-1,-1,-1,-1,-1,-1,-1,-1,-1,-1,-1,-1,-1,-1,-1,-1,-1,-1,-1,-1,-1,-1,-1,-1,-1,-1,-1],"loss_changes":[3.424511E1,1.6795095E1,4.4992886E0,2.8582432E0,3.0405922E0,1.866056E0,9.499779E-1,6.1576843E-1,3.8006544E0,1.0844898E0,1.9274635E0,1.6094685E0,7.859864E-1,7.5525093E-1,1.7026138E-1,0E0,5.225365E-1,4.248432E0,2.3268423E0,1.1183777E0,1.3516283E-1,2.033225E0,2.0288086E-1,1.4631517E0,2.7605138E0,2.0341468E-1,1.9568731E-1,4.4866014E-1,6.0299635E-1,1.5269756E-1,2.4059898E-1,4.746437E-1,1.560036E-1,2.0676098E0,4.377368E0,3.973982E0,2.3295364E0,1.7400665E0,1.357621E0,5.0828457E-3,0E0,1.3214421E0,7.0072794E-1,1.0775833E0,2.4016643E-1,1.1362624E0,1.275493E0,9.32374E-1,8.570473E-1,1.7395473E-1,4.850642E-3,1.4189675E-2,1.07990265E-1,5.120553E-1,4.3579507E-1,2.2058588E-1,3.105898E-1,8.7986946E-2,6.029326E-2,1.9303933E-2,2.0828646E-1,0E0,0E0,0E0,0E0,0E0,0E0,0E0,0E0,0E0,0E0,0E0,0E0,0E0,0E0,0E0,0E0,0E0,0E0,0E0,0E0,0E0,0E0,0E0,0E0,0E0,0E0,0E0,0E0,0E0,0E0,0E0,0E0,0E0,0E0,0E0,0E0,0E0,0E0,0E0,0E0,0E0,0E0,0E0,0E0,0E0,0E0,0E0,0E0,0E0,0E0,0E0,0E0,0E0,0E0,0E0,0E0,0E0,0E0],"parents":[2147483647,0,0,1,1,2,2,3,3,4,4,5,5,6,6,7,7,8,8,9,9,10,10,11,11,12,12,13,13,14,14,16,16,17,17,18,18,19,19,20,20,21,21,22,22,23,23,24,24,25,25,26,26,27,27,28,28,29,29,30,30,31,31,32,32,33,33,34,34,35,35,36,36,37,37,38,38,39,39,41,41,42,42,43,43,44,44,45,45,46,46,47,47,48,48,49,49,50,50,51,51,52,52,53,53,54,54,55,55,56,56,57,57,58,58,59,59,60,60],"right_children":[2,4,6,8,10,12,14,16,18,20,22,24,26,28,30,-1,32,34,36,38,40,42,44,46,48,50,52,54,56,58,60,62,64,66,68,70,72,74,76,78,-1,80,82,84,86,88,90,92,94,96,98,100,102,104,106,108,110,112,114,116,118,-1,-1,-1,-1,-1,-1,-1,-1,-1,-1,-1,-1,-1,-1,-1,-1,-1,-1,-1,-1,-1,-1,-1,-1,-1,-1,-1,-1,-1,-1,-1,-1,-1,-1,-1,-1,-1,-1,-1,-1,-1,-1,-1,-1,-1,-1,-1,-1,-1,-1,-1,-1,-1,-1,-1,-1,-1,-1],"split_conditions":[4.0658E0,2.00001E0,5.8178E0,-1.2268E2,2.1111E0,5.1E1,7.9213E0,3.833E1,-1.1834E2,4.097E1,-1.1625E2,4.63E2,2.00001E0,2.6E1,-1.1776E2,7.824619E-2,4.028E1,3.417E1,3.405E1,5.52E2,-1.2217E2,3.937E1,1.23E2,1.035E3,1.158E3,1.225E3,1.3E2,3.46E2,1.105E3,3.793E1,2.9E1,1.6E1,2.9E1,-1.1841E2,-1.2187E2,3.389E1,-1.1822E2,1.146E3,1.305E3,2.5E2,-1.633982E-1,2.1E1,2.5E1,1.08E2,3.6118E0,1.219E3,1.927E3,2.8E1,7.17E2,3.405E1,4.04E2,2.5E1,3.408E1,3.72E2,9.15E2,6.4504E0,3.365E1,3.365E1,3.833E1,2.5E1,9.042E0,-9.0281256E-2,-2.8718153E-2,-4.5474E-2,-1.1929067E-1,8.401582E-2,3.110245E-2,5.0625544E-2,-8.991977E-3,9.228751E-3,-2.2753067E-2,3.4476817E-2,-5.0455537E-3,-3.9432224E-2,-7.487637E-2,2.7188383E-2,-3.4754597E-2,-3.4344006E-2,-8.9350685E-2,-9.458143E-3,-2.5402842E-2,-3.8127262E-2,-7.779387E-2,-7.5163275E-2,1.6768871E-1,-9.923043E-2,-1.6886102E-2,-2.1659166E-3,2.2031128E-2,-3.816566E-2,2.2062203E-3,4.4007204E-2,1.1021503E-1,1.0441376E-2,2.8878449E-2,2.4027515E-2,1.09529205E-1,1.262312E-2,-8.411837E-3,9.708982E-2,2.0412827E-2,-4.811232E-2,1.1291219E-2,5.7446886E-2,5.8461926E-3,8.501595E-2,3.021121E-2,2.1429563E-2,-3.1649724E-2,9.325321E-2,4.704377E-2,7.923451E-2,5.5631578E-2,-1.5550089E-2,3.1587902E-2,-6.817704E-2,-7.7058794E-3,2.2410192E-2,6.8278104E-2],"split_indices":[4,5,4,3,4,1,4,2,3,2,3,8,5,1,3,0,2,2,2,8,3,2,0,7,7,7,0,8,9,2,8,1,1,3,3,2,3,7,7,0,0,1,1,0,4,9,9,1,8,2,0,0,2,7,7,4,2,2,2,0,4,0,0,0,0,0,0,0,0,0,0,0,0,0,0,0,0,0,0,0,0,0,0,0,0,0,0,0,0,0,0,0,0,0,0,0,0,0,0,0,0,0,0,0,0,0,0,0,0,0,0,0,0,0,0,0,0,0,0],"split_type":[0,0,0,0,0,0,0,0,0,0,0,0,0,0,0,0,0,0,0,0,0,0,0,0,0,0,0,0,0,0,0,0,0,0,0,0,0,0,0,0,0,0,0,0,0,0,0,0,0,0,0,0,0,0,0,0,0,0,0,0,0,0,0,0,0,0,0,0,0,0,0,0,0,0,0,0,0,0,0,0,0,0,0,0,0,0,0,0,0,0,0,0,0,0,0,0,0,0,0,0,0,0,0,0,0,0,0,0,0,0,0,0,0,0,0,0,0,0,0],"sum_hessian":[9.411E3,6.018E3,3.393E3,2.967E3,3.051E3,2.271E3,1.122E3,1.37E2,2.83E3,8.78E2,2.173E3,2.223E3,4.8E1,8.06E2,3.16E2,3E0,1.34E2,8.67E2,1.963E3,8.64E2,1.4E1,2.124E3,4.9E1,1.232E3,9.91E2,3.5E1,1.3E1,4.81E2,3.25E2,2.74E2,4.2E1,1.19E2,1.5E1,2.87E2,5.8E2,1.427E3,5.36E2,6.49E2,2.15E2,8E0,6E0,1.939E3,1.85E2,1E1,3.9E1,8.41E2,3.91E2,8E1,9.11E2,3.3E1,2E0,2E0,1.1E1,1.5E2,3.31E2,3.2E1,2.93E2,2.65E2,9E0,2E0,4E1,1.2E1,1.07E2,6E0,9E0,1.06E2,1.81E2,1.48E2,4.32E2,6.1E2,8.17E2,2.59E2,2.77E2,4.78E2,1.71E2,3.8E1,1.77E2,2E0,6E0,7.93E2,1.146E3,1.23E2,6.2E1,9E0,1E0,3.5E1,4E0,2.47E2,5.94E2,9.1E1,3E2,4.1E1,3.9E1,4.7E2,4.41E2,3E0,3E1,1E0,1E0,1E0,1E0,3E0,8E0,1.9E1,1.31E2,1.3E1,3.18E2,2.3E1,9E0,1.4E1,2.79E2,2.1E1,2.44E2,3E0,6E0,1E0,1E0,2.6E1,1.4E1],"tree_param":{"num_deleted":"0","num_feature":"10","num_nodes":"119","size_leaf_vector":"1"}},{"base_weights":[6.0476043E-5,-4.7161866E-2,3.9032403E-2,-1.4903693E-2,-8.160723E-2,6.1515443E-2,-1.0943364E-2,8.693846E-3,-1.0512125E-1,-1.5335923E-1,-4.984454E-2,4.14134E-2,9.152669E-2,3.392016E-2,-3.3936705E-2,-2.2897787E-2,5.4191314E-2,-4.5867264E-2,-1.4540213E-1,-1.4364454E-1,-3.5006934E-1,-3.412479E-2,-1.7872916E-1,6.2454063E-3,5.930409E-2,-4.1665277E-3,9.6842125E-2,1.9180562E-1,-1.9828886E-2,8.327319E-3,-1.2691718E-1,2.1909297E-1,-3.3406597E-2,4.5941804E-2,2.4775067E-1,-3.130927E-1,-3.675555E-2,-1.1523438E-1,-1.974816E-1,2.5146268E-2,-1.5665017E-1,-2.677393E-1,-2.92305E-1,1.5774737E-1,-3.6302447E-2,-6.1357766E-1,-1.6014369E-1,7.5724155E-2,-6.907476E-2,1.6766691E-1,4.939196E-2,6.745792E-2,-3.8521234E-2,2.1399532E-1,9.1987655E-2,2.3649703E-1,1.0841877E-1,-4.492063E-2,1.10112235E-1,1.2597248E-1,-2.9342698E-2,-1.1044831E-1,-2.9461205E-1,8.852281E-2,5.03548E-2,-2.6689447E-2,4.3145902E-3,1.7448068E-2,-4.018067E-2,1.08500294E-1,5.8519483E-2,-1.105477E-1,-5.4142E-3,3.6887307E-2,-1.7888267E-2,-2.4207592E-2,-6.1268143E-2,-4.6638E-2,-8.160262E-2,5.3954627E-2,-6.2491342E-2,-5.2478354E-2,-4.4302414E-3,-3.2448906E-2,-9.2454575E-2,1.09680004E-1,-1.1645821E-2,-5.3362276E-2,-2.3608826E-1,-3.3892002E-2,-8.136414E-2,9.932546E-3,5.3825486E-2,-4.282803E-2,-1.2306734E-2,-1.7122572E-2,5.6701455E-2,2.1263849E-2,4.34341E-3,4.99597E-2,1.2196951E-2,-2.4962464E-2,-8.931542E-4,8.438288E-2,3.9992504E-2,3.0525869E-2,7.2771367E-3,4.4727243E-2,8.791628E-2,5.977025E-2,2.2349168E-2,1.1025663E-2,-2.5992732E-2,5.6437828E-2,-2.8626232E-3,7.130408E-2,8.772958E-3,-2.094367E-2,4.199875E-2,-3.9783962E-2,-9.118704E-3,-1.6396999E-3,-1.0638695E-1],"categories":[],"categories_nodes":[],"categories_segments":[],"categories_sizes":[],"default_left":[0,0,0,0,0,0,0,0,0,0,0,0,0,0,0,0,0,0,0,0,0,0,0,0,0,0,0,0,0,0,0,0,0,0,0,0,0,0,0,0,0,0,0,0,0,0,0,0,0,0,0,0,0,0,0,0,0,0,0,0,0,0,0,0,0,0,0,0,0,0,0,0,0,0,0,0,0,0,0,0,0,0,0,0,0,0,0,0,0,0,0,0,0,0,0,0,0,0,0,0,0,0,0,0,0,0,0,0,0,0,0,0,0,0,0,0,0,0,0,0,0,0,0],"id":6,"left_children":[1,3,5,7,9,11,13,15,17,19,21,23,25,27,29,31,33,35,37,39,41,43,45,47,49,51,53,55,57,59,61,63,65,67,69,71,73,75,77,79,81,83,-1,-1,85,87,89,91,93,95,97,99,101,103,105,107,109,111,113,115,117,119,121,-1,-1,-1,-1,-1,-1,-1,-1,-1,-1,-1,-1,-1,-1,-1,-1,-1,-1,-1,-1,-1,-1,-1,-1,-1,-1,-1,-1,-1,-1,-1,-1,-1,-1,-1,-1,-1,-1,-1,-1,-1,-1,-1,-1,-1,-1,-1,-1,-1,-1,-1,-1,-1,-1,-1,-1,-1,-1,-1,-1],"loss_changes":[1.7323174E1,4.7278156E0,5.795116E0,4.6823926E0,4.6826124E0,2.1421032E0,1.6526824E0,2.5079606E0,1.0817132E0,1.1555395E0,2.8870778E0,1.3410404E0,7.257395E-1,4.611806E0,4.1626406E0,2.6266453E0,1.1303084E0,4.4138E-1,4.0301657E-1,1.3276634E0,1.2296431E0,1.5725743E0,1.154428E0,3.7730992E0,1.5094309E0,1.8960696E-1,7.486515E-1,4.886403E-1,1.3286887E0,3.234402E0,8.815985E-1,1.178987E-1,2.624467E0,1.51769E0,1.03503585E-1,9.142214E-2,6.685178E-1,5.184009E-1,2.646246E-1,1.6265411E0,1.4496574E0,1.4091551E-1,0E0,0E0,1.2988881E0,3.1328154E-1,7.552426E-1,1.6511829E0,7.0934093E-1,5.766604E-1,9.712517E-1,5.9612766E-2,8.234681E-2,2.5022435E-1,8.566961E-1,3.96276E-1,1.3918757E-1,1.1651548E0,6.1788476E-1,1.9056079E0,3.799511E0,5.335994E-1,5.012696E-1,0E0,0E0,0E0,0E0,0E0,0E0,0E0,0E0,0E0,0E0,0E0,0E0,0E0,0E0,0E0,0E0,0E0,0E0,0E0,0E0,0E0,0E0,0E0,0E0,0E0,0E0,0E0,0E0,0E0,0E0,0E0,0E0,0E0,0E0,0E0,0E0,0E0,0E0,0E0,0E0,0E0,0E0,0E0,0E0,0E0,0E0,0E0,0E0,0E0,0E0,0E0,0E0,0E0,0E0,0E0,0E0,0E0,0E0,0E0,0E0],"parents":[2147483647,0,0,1,1,2,2,3,3,4,4,5,5,6,6,7,7,8,8,9,9,10,10,11,11,12,12,13,13,14,14,15,15,16,16,17,17,18,18,19,19,20,20,21,21,22,22,23,23,24,24,25,25,26,26,27,27,28,28,29,29,30,30,31,31,32,32,33,33,34,34,35,35,36,36,37,37,38,38,39,39,40,40,41,41,44,44,45,45,46,46,47,47,48,48,49,49,50,50,51,51,52,52,53,53,54,54,55,55,56,56,57,57,58,58,59,59,60,60,61,61,62,62],"right_children":[2,4,6,8,10,12,14,16,18,20,22,24,26,28,30,32,34,36,38,40,42,44,46,48,50,52,54,56,58,60,62,64,66,68,70,72,74,76,78,80,82,84,-1,-1,86,88,90,92,94,96,98,100,102,104,106,108,110,112,114,116,118,120,122,-1,-1,-1,-1,-1,-1,-1,-1,-1,-1,-1,-1,-1,-1,-1,-1,-1,-1,-1,-1,-1,-1,-1,-1,-1,-1,-1,-1,-1,-1,-1,-1,-1,-1,-1,-1,-1,-1,-1,-1,-1,-1,-1,-1,-1,-1,-1,-1,-1,-1,-1,-1,-1,-1,-1,-1,-1,-1,-1,-1],"split_conditions":[3.244E0,3.454E1,2.00001E0,-1.1737E2,3.681E1,5.1423E0,3.454E1,3.405E1,1.8E1,-1.1739E2,3.993E1,1.709E3,3.32E1,-1.1782E2,-1.2065E2,-1.1842E2,3.442E1,6.9E1,3.408E1,4.88E2,3.526E1,4E0,1.1311E0,7.65E2,8.95E2,1.4E1,3.358E1,-1.1801E2,6.638E3,3.796E1,-1.1801E2,8.23E2,-1.1822E2,3.425E1,9.99E2,1.3E1,2.44E2,-1.1625E2,2.3687E0,3.5E1,-1.1893E2,1.1E1,-2.92305E-1,1.5774737E-1,4.1E1,2.4E1,-1.2217E2,2.62E2,1.302E3,3.353E1,-1.1808E2,5.3638E0,5.5792E0,6.871E0,-1.1784E2,-1.1808E2,3.5208E0,-1.1752E2,4.723E3,-1.2131E2,-1.2123E2,3.735E1,3.496E1,8.852281E-2,5.03548E-2,-2.6689447E-2,4.3145902E-3,1.7448068E-2,-4.018067E-2,1.08500294E-1,5.8519483E-2,-1.105477E-1,-5.4142E-3,3.6887307E-2,-1.7888267E-2,-2.4207592E-2,-6.1268143E-2,-4.6638E-2,-8.160262E-2,5.3954627E-2,-6.2491342E-2,-5.2478354E-2,-4.4302414E-3,-3.2448906E-2,-9.2454575E-2,1.09680004E-1,-1.1645821E-2,-5.3362276E-2,-2.3608826E-1,-3.3892002E-2,-8.136414E-2,9.932546E-3,5.3825486E-2,-4.282803E-2,-1.2306734E-2,-1.7122572E-2,5.6701455E-2,2.1263849E-2,4.34341E-3,4.99597E-2,1.2196951E-2,-2.4962464E-2,-8.931542E-4,8.438288E-2,3.9992504E-2,3.0525869E-2,7.2771367E-3,4.4727243E-2,8.791628E-2,5.977025E-2,2.2349168E-2,1.1025663E-2,-2.5992732E-2,5.6437828E-2,-2.8626232E-3,7.130408E-2,8.772958E-3,-2.094367E-2,4.199875E-2,-3.9783962E-2,-9.118704E-3,-1.6396999E-3,-1.0638695E-1],"split_indices":[4,2,5,3,2,4,2,2,1,3,2,9,2,3,3,3,2,7,2,7,2,1,4,7,7,1,2,3,9,2,3,7,3,2,9,1,0,3,4,1,3,1,0,0,7,1,3,8,9,2,3,4,4,4,3,3,4,3,7,3,3,2,2,0,0,0,0,0,0,0,0,0,0,0,0,0,0,0,0,0,0,0,0,0,0,0,0,0,0,0,0,0,0,0,0,0,0,0,0,0,0,0,0,0,0,0,0,0,0,0,0,0,0,0,0,0,0,0,0,0,0,0,0],"split_type":[0,0,0,0,0,0,0,0,0,0,0,0,0,0,0,0,0,0,0,0,0,0,0,0,0,0,0,0,0,0,0,0,0,0,0,0,0,0,0,0,0,0,0,0,0,0,0,0,0,0,0,0,0,0,0,0,0,0,0,0,0,0,0,0,0,0,0,0,0,0,0,0,0,0,0,0,0,0,0,0,0,0,0,0,0,0,0,0,0,0,0,0,0,0,0,0,0,0,0,0,0,0,0,0,0,0,0,0,0,0,0,0,0,0,0,0,0,0,0,0,0,0,0],"sum_hessian":[9.411E3,4.255E3,5.156E3,2.198E3,2.057E3,3.556E3,1.6E3,1.743E3,4.55E2,6.3E2,1.427E3,2.131E3,1.425E3,5.42E2,1.058E3,1.029E3,7.14E2,1.85E2,2.7E2,6.02E2,2.8E1,1.273E3,1.54E2,7.19E2,1.412E3,7.5E1,1.35E3,1.37E2,4.05E2,7.28E2,3.3E2,4.2E1,9.87E2,6.86E2,2.8E1,5E0,1.8E2,1.73E2,9.7E1,4.3E1,5.59E2,2.6E1,2E0,4E0,1.269E3,5E0,1.49E2,3.74E2,3.45E2,1.17E2,1.295E3,2.4E1,5.1E1,5.2E1,1.298E3,8.8E1,4.9E1,3.4E2,6.5E1,1.76E2,5.52E2,3.02E2,2.8E1,1.5E1,2.7E1,4.56E2,5.31E2,6.43E2,4.3E1,7E0,2.1E1,4E0,1E0,2.2E1,1.58E2,1.26E2,4.7E1,6.4E1,3.3E1,2.6E1,1.7E1,4.95E2,6.4E1,6E0,2E1,7E0,1.262E3,2E0,3E0,1.06E2,4.3E1,2.66E2,1.08E2,9.4E1,2.51E2,1E1,1.07E2,8.01E2,4.94E2,4E0,2E1,2.2E1,2.9E1,2.7E1,2.5E1,1.134E3,1.64E2,3.6E1,5.2E1,1.2E1,3.7E1,1.15E2,2.25E2,3.9E1,2.6E1,8.1E1,9.5E1,4.46E2,1.06E2,2.36E2,6.6E1,5E0,2.3E1],"tree_param":{"num_deleted":"0","num_feature":"10","num_nodes":"123","size_leaf_vector":"1"}},{"base_weights":[1.9877705E-5,-2.244377E-2,4.1226897E-2,4.2005354E-3,-4.8501186E-2,3.2348473E-2,9.11367E-2,-2.9670509E-2,2.064153E-2,-2.1145694E-2,-6.566671E-2,2.8888382E-2,1.313308E-1,-5.0662994E-2,9.324856E-2,3.803309E-2,-6.2156215E-2,2.9000869E-2,-7.396943E-2,-1.8397114E-1,-1.5463811E-2,-7.304269E-2,3.8293686E-2,9.821884E-3,4.6742704E-2,1.7744413E-1,6.056695E-2,7.047629E-2,-1.2502085E-1,8.091992E-2,1.271463E-1,-1.614117E-2,1.4452462E-1,2.0518686E-1,-6.43067E-2,2.728149E-1,2.3644043E-2,-4.7203922E-1,-5.0679002E-2,-5.4380393E-1,-1.4009811E-1,4.4061145E-1,-1.7440176E-2,6.2130004E-2,-8.11887E-2,-4.2175165E-1,6.0789376E-2,3.8462315E-2,-2.1322567E-2,1.2251467E-1,2.6376558E-2,-5.665791E-2,2.1135157E-1,-5.858771E-2,1.0947013E-1,9.433651E-2,-3.13123E-1,6.953656E-2,1.1997348E-1,1.3135077E-1,-3.8131714E-2,1.14278635E-2,-2.8537465E-2,2.0601079E-2,7.0337415E-2,-2.700587E-2,1.0197993E-3,1.0027163E-1,-4.3981075E-3,-1.6563473E-2,9.786327E-3,7.2983266E-3,-1.6113782E-1,-3.9881084E-2,-2.6027001E-3,-5.0368406E-2,-2.5072977E-1,-2.2746932E-2,-9.18175E-2,1.4561434E-1,3.922992E-2,4.9949083E-3,-1.29883615E-2,3.1384375E-2,-1.0048233E-1,-4.4107515E-2,-1.9740283E-2,-1.3604022E-2,-1.46389E-1,3.6691464E-2,-3.1279062E-3,-1.980272E-4,1.940164E-2,-2.824482E-2,-1.594704E-3,1.7040536E-2,4.4034507E-2,-8.628084E-3,1.5003968E-2,2.319069E-2,-3.425851E-2,1.2119225E-1,5.5745922E-2,-2.5551224E-2,4.7613145E-3,3.896538E-2,-3.1240084E-3,3.347397E-5,3.771229E-2,-1.3112083E-1,-3.7835315E-2,2.4217904E-2,5.7095224E-3,5.8912672E-2,3.2308735E-2,1.7738264E-2,4.1105498E-2,3.812013E-2,-4.0666103E-2],"categories":[],"categories_nodes":[],"categories_segments":[],"categories_sizes":[],"default_left":[0,0,0,0,0,0,0,0,0,0,0,0,0,0,0,0,0,0,0,0,0,0,0,0,0,0,0,0,0,0,0,0,0,0,0,0,0,0,0,0,0,0,0,0,0,0,0,0,0,0,0,0,0,0,0,0,0,0,0,0,0,0,0,0,0,0,0,0,0,0,0,0,0,0,0,0,0,0,0,0,0,0,0,0,0,0,0,0,0,0,0,0,0,0,0,0,0,0,0,0,0,0,0,0,0,0,0,0,0,0,0,0,0,0,0,0,0,0,0],"id":7,"left_children":[1,3,5,7,9,11,13,15,17,19,21,23,25,27,29,31,33,35,37,39,41,43,45,47,49,51,53,-1,55,57,59,61,63,-1,65,67,69,71,73,75,77,79,81,83,85,87,89,91,93,95,97,99,101,103,105,107,109,111,113,115,117,-1,-1,-1,-1,-1,-1,-1,-1,-1,-1,-1,-1,-1,-1,-1,-1,-1,-1,-1,-1,-1,-1,-1,-1,-1,-1,-1,-1,-1,-1,-1,-1,-1,-1,-1,-1,-1,-1,-1,-1,-1,-1,-1,-1,-1,-1,-1,-1,-1,-1,-1,-1,-1,-1,-1,-1,-1,-1],"loss_changes":[8.713237E0,4.2297688E0,1.4686551E0,1.6784728E0,1.4448915E0,9.623647E-1,1.5475416E-1,2.1687722E0,1.606851E0,1.0971644E0,1.453599E0,9.2786455E-1,2.992525E-1,1.9925329E-1,1.961608E-1,1.8484449E0,1.1125791E0,2.4293683E0,1.5058281E0,5.5529237E-1,1.0442604E0,1.9507198E0,1.3296167E0,1.1782476E0,2.1695704E0,4.644295E-1,2.3366824E-1,0E0,3.1837004E-1,1.5392208E-1,9.534621E-2,9.1603166E-1,7.2065854E-1,0E0,1.1580153E0,7.112136E-1,1.2944093E0,3.038299E-1,5.4129857E-1,2.98684E-1,3.7147623E-1,5.886793E-3,1.010773E0,1.738849E0,1.6791201E0,1.2740672E-1,5.313605E-1,7.0551157E-1,7.374072E-1,4.668703E-1,1.4493504E0,7.048901E-2,1.7083406E-1,2.5103822E-2,6.987858E-2,1.180974E-2,3.759235E-2,1.595279E-1,5.4832697E-2,4.3883324E-2,8.1600375E-2,0E0,0E0,0E0,0E0,0E0,0E0,0E0,0E0,0E0,0E0,0E0,0E0,0E0,0E0,0E0,0E0,0E0,0E0,0E0,0E0,0E0,0E0,0E0,0E0,0E0,0E0,0E0,0E0,0E0,0E0,0E0,0E0,0E0,0E0,0E0,0E0,0E0,0E0,0E0,0E0,0E0,0E0,0E0,0E0,0E0,0E0,0E0,0E0,0E0,0E0,0E0,0E0,0E0,0E0,0E0,0E0,0E0,0E0],"parents":[2147483647,0,0,1,1,2,2,3,3,4,4,5,5,6,6,7,7,8,8,9,9,10,10,11,11,12,12,13,13,14,14,15,15,16,16,17,17,18,18,19,19,20,20,21,21,22,22,23,23,24,24,25,25,26,26,28,28,29,29,30,30,31,31,32,32,34,34,35,35,36,36,37,37,38,38,39,39,40,40,41,41,42,42,43,43,44,44,45,45,46,46,47,47,48,48,49,49,50,50,51,51,52,52,53,53,54,54,55,55,56,56,57,57,58,58,59,59,60,60],"right_children":[2,4,6,8,10,12,14,16,18,20,22,24,26,28,30,32,34,36,38,40,42,44,46,48,50,52,54,-1,56,58,60,62,64,-1,66,68,70,72,74,76,78,80,82,84,86,88,90,92,94,96,98,100,102,104,106,108,110,112,114,116,118,-1,-1,-1,-1,-1,-1,-1,-1,-1,-1,-1,-1,-1,-1,-1,-1,-1,-1,-1,-1,-1,-1,-1,-1,-1,-1,-1,-1,-1,-1,-1,-1,-1,-1,-1,-1,-1,-1,-1,-1,-1,-1,-1,-1,-1,-1,-1,-1,-1,-1,-1,-1,-1,-1,-1,-1,-1,-1],"split_conditions":[4.0972E0,2.00001E0,7.0217E0,3.48E2,2.1E1,4.8E1,6.7E1,6.37E2,-1.1778E2,1.69E2,5E1,4.16E2,3.416E1,3.39E1,3.4E1,1.97E2,8.952E-1,3.371E1,6.7E2,-1.2271E2,5.7E1,2.93E2,8.952E-1,8.54E2,1.296E3,3.403E1,3.418E1,7.047629E-2,2.7E1,6.37E2,-1.179E2,4.37E2,3.7E1,2.0518686E-1,-1.1815E2,1.302E3,1.8446E0,3.283E1,2.7708E0,-1.2286E2,3.1103E0,4.9E1,-1.2076E2,3.937E1,1.7976E0,3.9E1,-1.2099E2,1.219E3,1.657E3,1.8E1,3.32E3,3.376E1,4.175E0,-1.1815E2,-1.1822E2,9E0,3.403E1,1.518E3,6.42E2,-1.2156E2,3.358E1,1.14278635E-2,-2.8537465E-2,2.0601079E-2,7.0337415E-2,-2.700587E-2,1.0197993E-3,1.0027163E-1,-4.3981075E-3,-1.6563473E-2,9.786327E-3,7.2983266E-3,-1.6113782E-1,-3.9881084E-2,-2.6027001E-3,-5.0368406E-2,-2.5072977E-1,-2.2746932E-2,-9.18175E-2,1.4561434E-1,3.922992E-2,4.9949083E-3,-1.29883615E-2,3.1384375E-2,-1.0048233E-1,-4.4107515E-2,-1.9740283E-2,-1.3604022E-2,-1.46389E-1,3.6691464E-2,-3.1279062E-3,-1.980272E-4,1.940164E-2,-2.824482E-2,-1.594704E-3,1.7040536E-2,4.4034507E-2,-8.628084E-3,1.5003968E-2,2.319069E-2,-3.425851E-2,1.2119225E-1,5.5745922E-2,-2.5551224E-2,4.7613145E-3,3.896538E-2,-3.1240084E-3,3.347397E-5,3.771229E-2,-1.3112083E-1,-3.7835315E-2,2.4217904E-2,5.7095224E-3,5.8912672E-2,3.2308735E-2,1.7738264E-2,4.1105498E-2,3.812013E-2,-4.0666103E-2],"split_indices":[4,5,4,8,1,1,9,7,3,7,1,8,2,2,1,0,4,2,7,3,0,7,4,7,7,2,2,0,1,8,3,7,1,0,3,8,4,2,4,3,4,0,3,2,4,0,3,9,9,1,9,2,4,3,3,1,2,7,0,3,2,0,0,0,0,0,0,0,0,0,0,0,0,0,0,0,0,0,0,0,0,0,0,0,0,0,0,0,0,0,0,0,0,0,0,0,0,0,0,0,0,0,0,0,0,0,0,0,0,0,0,0,0,0,0,0,0,0,0],"split_type":[0,0,0,0,0,0,0,0,0,0,0,0,0,0,0,0,0,0,0,0,0,0,0,0,0,0,0,0,0,0,0,0,0,0,0,0,0,0,0,0,0,0,0,0,0,0,0,0,0,0,0,0,0,0,0,0,0,0,0,0,0,0,0,0,0,0,0,0,0,0,0,0,0,0,0,0,0,0,0,0,0,0,0,0,0,0,0,0,0,0,0,0,0,0,0,0,0,0,0,0,0,0,0,0,0,0,0,0,0,0,0,0,0,0,0,0,0,0,0],"sum_hessian":[9.411E3,6.091E3,3.32E3,3.012E3,3.079E3,2.82E3,5E2,9.84E2,2.028E3,1.188E3,1.891E3,2.726E3,9.4E1,7E0,4.93E2,3.19E2,6.65E2,1.864E3,1.64E2,3.9E1,1.149E3,1.766E3,1.25E2,1.319E3,1.407E3,5.6E1,3.8E1,1E0,6E0,3.64E2,1.29E2,2.12E2,1.07E2,1E0,6.64E2,3.9E1,1.825E3,8E0,1.56E2,3E0,3.6E1,4E0,1.145E3,1E2,1.666E3,5E0,1.2E2,6.87E2,6.32E2,2.97E2,1.11E3,7E0,4.9E1,1.1E1,2.7E1,3E0,3E0,2.84E2,8E1,1.26E2,3E0,1.26E2,8.6E1,5.9E1,4.8E1,4.81E2,1.83E2,3.2E1,7E0,1.86E2,1.639E3,1E0,7E0,5.2E1,1.04E2,2E0,1E0,2.7E1,9E0,3E0,1E0,4.94E2,6.51E2,9.1E1,9E0,3.14E2,1.352E3,1E0,4E0,6.4E1,5.6E1,2.76E2,4.11E2,1.13E2,5.19E2,8.1E1,2.16E2,3.33E2,7.77E2,2E0,5E0,4E0,4.5E1,8E0,3E0,2.3E1,4E0,1E0,2E0,1E0,2E0,2.32E2,5.2E1,9E0,7.1E1,1E1,1.16E2,1E0,2E0],"tree_param":{"num_deleted":"0","num_feature":"10","num_nodes":"119","size_leaf_vector":"1"}},{"base_weights":[1.4020289E-5,1.8462472E-2,-2.734478E-2,3.2666642E-2,-4.349018E-2,-9.555772E-2,-6.8738633E-3,2.3040004E-1,2.940849E-2,-9.145859E-3,-7.736185E-2,3.104341E-1,-9.918949E-2,3.8224064E-2,-3.4759227E-2,-6.826988E-2,2.5295588E-1,1.4215269E-2,6.209375E-2,-2.2302924E-1,-5.383026E-3,-5.7316296E-2,-1.2941724E-1,3.851584E-1,5.7507515E-2,-9.033336E-2,-2.6298764E-1,6.503446E-2,-9.6904054E-2,-5.634896E-2,4.650759E-2,1.1559963E-1,3.346154E-1,3.2113165E-2,-2.4290772E-2,1.20256804E-1,4.2738542E-2,5.558141E-2,-3.1057248E-1,2.5045654E-2,-2.7699756E-2,-4.060236E-2,-1.3846137E-1,-6.382563E-2,-1.5190479E-1,2.6637126E-2,1.2800217E-1,4.8555853E-3,2.1022797E-2,-6.959407E-2,-1.3045235E-1,-2.322714E-1,-1.8160573E-1,2.1008745E-1,5.226432E-2,-1.3155903E-1,1.1076426E-1,-2.0930363E-2,-1.18513666E-1,7.976372E-2,-1.8448286E-1,4.5315396E-2,-1.2623936E-1,1.0872713E-1,4.075609E-2,4.6421472E-2,7.7123386E-3,1.0928389E-1,-8.000043E-3,2.4439191E-2,4.6463985E-2,1.015866E-3,1.7573379E-2,3.2908919E-3,2.1720745E-2,-1.08303696E-1,-1.1900426E-3,-1.3401694E-2,1.9497275E-2,-1.45223485E-2,9.6284505E-3,-1.5766483E-2,3.6943898E-2,9.555372E-3,-4.8877105E-2,-8.721967E-3,-5.2930992E-2,-4.2057592E-2,-1.264171E-1,-8.554567E-3,-2.820416E-2,-5.322491E-2,-2.6746755E-2,-6.029481E-2,-1.7160912E-1,9.2683904E-2,3.0062037E-2,5.0858553E-2,1.127863E-2,-4.2440835E-2,6.059275E-2,7.897266E-2,9.812451E-3,8.047404E-3,-2.3352228E-2,-1.05588324E-1,-3.252337E-2,3.954269E-3,3.8294654E-2,-3.993133E-2,-1.0356025E-1],"categories":[],"categories_nodes":[],"categories_segments":[],"categories_sizes":[],"default_left":[0,0,0,0,0,0,0,0,0,0,0,0,0,0,0,0,0,0,0,0,0,0,0,0,0,0,0,0,0,0,0,0,0,0,0,0,0,0,0,0,0,0,0,0,0,0,0,0,0,0,0,0,0,0,0,0,0,0,0,0,0,0,0,0,0,0,0,0,0,0,0,0,0,0,0,0,0,0,0,0,0,0,0,0,0,0,0,0,0,0,0,0,0,0,0,0,0,0,0,0,0,0,0,0,0,0,0,0,0,0,0],"id":8,"left_children":[1,3,5,7,9,11,13,15,17,19,21,23,25,27,29,-1,31,33,35,37,39,41,43,45,47,49,51,53,55,57,59,61,63,65,67,69,71,73,75,77,79,81,83,85,87,-1,-1,-1,-1,89,91,93,-1,95,97,99,101,103,105,107,109,-1,-1,-1,-1,-1,-1,-1,-1,-1,-1,-1,-1,-1,-1,-1,-1,-1,-1,-1,-1,-1,-1,-1,-1,-1,-1,-1,-1,-1,-1,-1,-1,-1,-1,-1,-1,-1,-1,-1,-1,-1,-1,-1,-1,-1,-1,-1,-1,-1,-1],"loss_changes":[4.7510004E0,4.948702E0,5.293025E0,2.9400015E0,1.2195938E0,1.3209529E0,3.6696663E0,8.2197094E-1,2.2342892E0,4.1890898E-1,5.435393E-1,1.2904859E-1,1.2353792E0,4.0457664E0,3.166036E0,0E0,7.5768614E-1,2.1193106E0,1.6024427E0,2.3677638E-1,3.4973505E-1,5.138233E-1,2.0565367E-1,3.593862E-2,4.238719E-4,6.773534E-1,3.2210517E-1,1.7135546E0,1.3459687E0,3.1350656E0,2.9261353E0,5.9601533E-1,1.9396162E-1,1.6447008E0,9.1081333E-1,4.6553707E-1,6.686202E-1,1.4570234E-3,1.0682386E-1,6.1001194E-1,3.693081E-1,6.308249E-1,2.7599478E-1,1.4749706E-1,2.8181958E-1,0E0,0E0,0E0,0E0,5.45032E-1,5.2722836E-1,3.3151793E-1,0E0,7.837424E-1,1.4677825E0,5.541434E-1,3.1273928E-1,2.4725304E0,1.1811299E0,1.0568421E0,3.5040903E-1,0E0,0E0,0E0,0E0,0E0,0E0,0E0,0E0,0E0,0E0,0E0,0E0,0E0,0E0,0E0,0E0,0E0,0E0,0E0,0E0,0E0,0E0,0E0,0E0,0E0,0E0,0E0,0E0,0E0,0E0,0E0,0E0,0E0,0E0,0E0,0E0,0E0,0E0,0E0,0E0,0E0,0E0,0E0,0E0,0E0,0E0,0E0,0E0,0E0,0E0],"parents":[2147483647,0,0,1,1,2,2,3,3,4,4,5,5,6,6,7,7,8,8,9,9,10,10,11,11,12,12,13,13,14,14,16,16,17,17,18,18,19,19,20,20,21,21,22,22,23,23,24,24,25,25,26,26,27,27,28,28,29,29,30,30,31,31,32,32,33,33,34,34,35,35,36,36,37,37,38,38,39,39,40,40,41,41,42,42,43,43,44,44,49,49,50,50,51,51,53,53,54,54,55,55,56,56,57,57,58,58,59,59,60,60],"right_children":[2,4,6,8,10,12,14,16,18,20,22,24,26,28,30,-1,32,34,36,38,40,42,44,46,48,50,52,54,56,58,60,62,64,66,68,70,72,74,76,78,80,82,84,86,88,-1,-1,-1,-1,90,92,94,-1,96,98,100,102,104,106,108,110,-1,-1,-1,-1,-1,-1,-1,-1,-1,-1,-1,-1,-1,-1,-1,-1,-1,-1,-1,-1,-1,-1,-1,-1,-1,-1,-1,-1,-1,-1,-1,-1,-1,-1,-1,-1,-1,-1,-1,-1,-1,-1,-1,-1,-1,-1,-1,-1,-1,-1],"split_conditions":[3.487E1,-1.1752E2,3.683E1,-1.1906E2,1.8E1,-1.2188E2,3.785E1,-1.2035E2,2.683E3,6.9E1,3.408E1,1.94E2,-1.1786E2,-1.2076E2,-1.2123E2,-6.826988E-2,3.1597E0,1.231E3,1.554E3,-1.1716E2,1.39E3,-1.1625E2,2.7E1,1.58E2,2.66E2,3.1E1,1.149E3,-1.2201E2,-1.1965E2,3.868E1,3.937E1,3.447E1,6.6112E0,3.366E1,5.84E2,5.09E2,7.11E2,7E0,1.6E1,3.32E1,4.7969E0,-1.1657E2,3.276E1,-1.1657E2,1.068E3,2.6637126E-2,1.2800217E-1,4.8555853E-3,2.1022797E-2,1.11E3,3.633E1,3.599E1,-1.8160573E-1,6.2403E0,3.721E1,3.771E1,2.36E2,-1.2146E2,1.99E2,3.868E1,4.052E1,4.5315396E-2,-1.2623936E-1,1.0872713E-1,4.075609E-2,4.6421472E-2,7.7123386E-3,1.0928389E-1,-8.000043E-3,2.4439191E-2,4.6463985E-2,1.015866E-3,1.7573379E-2,3.2908919E-3,2.1720745E-2,-1.08303696E-1,-1.1900426E-3,-1.3401694E-2,1.9497275E-2,-1.45223485E-2,9.6284505E-3,-1.5766483E-2,3.6943898E-2,9.555372E-3,-4.8877105E-2,-8.721967E-3,-5.2930992E-2,-4.2057592E-2,-1.264171E-1,-8.554567E-3,-2.820416E-2,-5.322491E-2,-2.6746755E-2,-6.029481E-2,-1.7160912E-1,9.2683904E-2,3.0062037E-2,5.0858553E-2,1.127863E-2,-4.2440835E-2,6.059275E-2,7.897266E-2,9.812451E-3,8.047404E-3,-2.3352228E-2,-1.05588324E-1,-3.252337E-2,3.954269E-3,3.8294654E-2,-3.993133E-2,-1.0356025E-1],"split_indices":[2,3,2,3,1,3,2,3,9,7,2,0,3,3,3,0,4,7,7,3,7,3,1,0,0,1,0,3,3,2,2,2,4,2,9,0,8,1,1,2,4,3,2,3,8,0,0,0,0,7,2,2,0,4,2,2,0,3,7,2,2,0,0,0,0,0,0,0,0,0,0,0,0,0,0,0,0,0,0,0,0,0,0,0,0,0,0,0,0,0,0,0,0,0,0,0,0,0,0,0,0,0,0,0,0,0,0,0,0,0,0],"split_type":[0,0,0,0,0,0,0,0,0,0,0,0,0,0,0,0,0,0,0,0,0,0,0,0,0,0,0,0,0,0,0,0,0,0,0,0,0,0,0,0,0,0,0,0,0,0,0,0,0,0,0,0,0,0,0,0,0,0,0,0,0,0,0,0,0,0,0,0,0,0,0,0,0,0,0,0,0,0,0,0,0,0,0,0,0,0,0,0,0,0,0,0,0,0,0,0,0,0,0,0,0,0,0,0,0,0,0,0,0,0,0],"sum_hessian":[9.411E3,5.621E3,3.79E3,4.573E3,1.048E3,8.74E2,2.916E3,7.3E1,4.5E3,5.21E2,5.27E2,7E0,8.67E2,1.114E3,1.802E3,3E0,7E1,3.073E3,1.427E3,8E0,5.13E2,3.82E2,1.45E2,5E0,2E0,8.24E2,4.3E1,9.3E2,1.84E2,1.424E3,3.78E2,2.7E1,4.3E1,2.098E3,9.75E2,3.55E2,1.072E3,2E0,6E0,2.17E2,2.96E2,3.18E2,6.4E1,3.8E1,1.07E2,1E0,4E0,1E0,1E0,5.45E2,2.79E2,4.1E1,2E0,7.4E1,8.56E2,1.58E2,2.6E1,9.08E2,5.16E2,3.31E2,4.7E1,2.6E1,1E0,3.7E1,6E0,1.03E2,1.995E3,5E0,9.7E2,1.69E2,1.86E2,3.08E2,7.64E2,1E0,1E0,5E0,1E0,7.9E1,1.38E2,2.2E2,7.6E1,2.97E2,2.1E1,8E0,5.6E1,3E1,8E0,1.04E2,3E0,2.04E2,3.41E2,1.29E2,1.5E2,3.9E1,2E0,3.8E1,3.6E1,9.4E1,7.62E2,1.54E2,4E0,8E0,1.8E1,4.94E2,4.14E2,2E1,4.96E2,1.39E2,1.92E2,3.7E1,1E1],"tree_param":{"num_deleted":"0","num_feature":"10","num_nodes":"111","size_leaf_vector":"1"}},{"base_weights":[-3.2549455E-5,1.290846E-2,-1.9223876E-2,2.292035E-2,-3.0759126E-2,-9.26318E-2,-9.532674E-3,1.6278066E-2,8.529063E-2,7.3730038E-3,-4.913544E-2,-7.535855E-2,-1.4166926E-1,-8.044939E-2,-2.6838642E-3,4.9590968E-2,3.947232E-3,-7.0588985E-3,1.5294446E-1,3.3555627E-2,-3.25327E-2,-3.4522403E-2,-9.27795E-2,1.389463E-1,-8.3208546E-2,-8.0308914E-2,-2.3397048E-1,-4.0380713E-1,-6.768663E-2,4.5367245E-2,-1.8720694E-2,1.0291083E-1,1.9612545E-3,6.8197355E-2,-3.642452E-3,2.889727E-1,-1.8468635E-2,4.9827218E-1,1.3526183E-1,-1.6101447E-1,4.3212924E-2,-8.193826E-3,-1.457727E-1,-3.3550414E-1,-3.1606812E-2,-5.000039E-2,-1.12682916E-1,-1.105121E-1,3.3291832E-1,-1.467482E-1,-6.66208E-2,-1.0215097E-1,3.3773582E-2,-3.417963E-1,-1.8903281E-1,-1.3349704E-1,-5.39199E-1,-1.19821616E-1,-5.1113855E-2,7.185443E-2,-5.9336193E-2,3.0849623E-3,-4.2352904E-2,2.2972113E-2,4.560013E-2,4.4169743E-2,-6.819897E-3,8.536506E-3,8.927704E-2,-1.3182451E-2,2.7141445E-3,-4.5207504E-2,1.4849305E-1,6.934901E-3,-1.293351E-2,1.8465619E-1,6.3306086E-2,6.720077E-2,3.1286485E-2,-6.5495685E-2,-1.801386E-2,-1.3451747E-2,2.08211E-2,8.165136E-2,-6.2938305E-3,-7.848523E-2,2.2911135E-2,-1.1805089E-1,-1.5526343E-2,-1.0779957E-2,4.7226552E-2,-6.7189606E-3,-4.6184637E-2,-3.8168635E-2,-1.4759482E-2,-6.589859E-2,2.1557523E-2,1.1029377E-1,1.868291E-2,-6.73025E-2,-3.0549591E-2,-2.85625E-3,-2.7561713E-2,-2.6543738E-2,-1.3426767E-1,6.2878616E-2,-6.7050937E-3,-1.2009939E-1,-3.739307E-2,-4.6725255E-2,-1.052754E-1,1.0288954E-2,-5.520587E-2,-1.9268195E-1,1.1886836E-2,-5.290192E-3,-5.254787E-2,-1.2710405E-4,-2.622955E-2,1.605347E-2,1.2759325E-1,-2.2076925E-2,3.4995344E-2,4.2073585E-2,-7.6142146E-4,-9.448805E-3,-3.2803867E-2],"categories":[],"categories_nodes":[],"categories_segments":[],"categories_sizes":[],"default_left":[0,0,0,0,0,0,0,0,0,0,0,0,0,0,0,0,0,0,0,0,0,0,0,0,0,0,0,0,0,0,0,0,0,0,0,0,0,0,0,0,0,0,0,0,0,0,0,0,0,0,0,0,0,0,0,0,0,0,0,0,0,0,0,0,0,0,0,0,0,0,0,0,0,0,0,0,0,0,0,0,0,0,0,0,0,0,0,0,0,0,0,0,0,0,0,0,0,0,0,0,0,0,0,0,0,0,0,0,0,0,0,0,0,0,0,0,0,0,0,0,0,0,0,0,0,0,0],"id":9,"left_children":[1,3,5,7,9,11,13,15,17,19,21,23,25,27,29,31,33,35,37,39,41,43,45,47,49,51,53,55,57,59,61,63,65,67,69,71,73,75,77,79,81,83,85,87,89,91,93,95,97,99,101,103,105,107,109,111,113,115,117,119,121,123,125,-1,-1,-1,-1,-1,-1,-1,-1,-1,-1,-1,-1,-1,-1,-1,-1,-1,-1,-1,-1,-1,-1,-1,-1,-1,-1,-1,-1,-1,-1,-1,-1,-1,-1,-1,-1,-1,-1,-1,-1,-1,-1,-1,-1,-1,-1,-1,-1,-1,-1,-1,-1,-1,-1,-1,-1,-1,-1,-1,-1,-1,-1,-1,-1],"loss_changes":[2.3377666E0,2.4586158E0,2.6960762E0,1.8935332E0,7.354258E-1,3.6371398E-1,1.6268625E0,1.6983626E0,2.7501116E0,3.5842553E-1,4.4833994E-1,5.650358E-1,6.2686443E-1,1.1901135E0,2.3557646E0,2.836542E0,1.4724277E0,6.369561E-1,1.4836025E0,3.9591536E-1,3.7363976E-1,4.562466E-1,1.4507246E-1,6.1744684E-1,3.253889E-1,1.7787576E-1,1.5343404E-1,3.3059418E-1,2.401216E-1,2.125837E0,1.1812346E0,6.697078E-1,2.1234784E0,2.8997293E0,1.3816317E0,7.085975E-1,1.8648198E-1,2.742703E-1,6.445532E-1,4.4750094E-2,4.5972946E-1,4.1077405E-1,6.375986E-1,6.1920106E-2,4.3745995E-1,1.629759E-1,1.0455322E-1,1.3521883E-1,4.2895555E-2,2.0369339E-1,3.6535883E-1,2.3901969E-1,1.2309816E-1,1.02633595E-1,1.2853134E-1,4.8698E-2,4.4307923E-1,3.814413E-1,4.0129322E-1,3.9385998E0,3.973933E-1,9.2046565E-1,7.9662895E-1,0E0,0E0,0E0,0E0,0E0,0E0,0E0,0E0,0E0,0E0,0E0,0E0,0E0,0E0,0E0,0E0,0E0,0E0,0E0,0E0,0E0,0E0,0E0,0E0,0E0,0E0,0E0,0E0,0E0,0E0,0E0,0E0,0E0,0E0,0E0,0E0,0E0,0E0,0E0,0E0,0E0,0E0,0E0,0E0,0E0,0E0,0E0,0E0,0E0,0E0,0E0,0E0,0E0,0E0,0E0,0E0,0E0,0E0,0E0,0E0,0E0,0E0,0E0,0E0],"parents":[2147483647,0,0,1,1,2,2,3,3,4,4,5,5,6,6,7,7,8,8,9,9,10,10,11,11,12,12,13,13,14,14,15,15,16,16,17,17,18,18,19,19,20,20,21,21,22,22,23,23,24,24,25,25,26,26,27,27,28,28,29,29,30,30,31,31,32,32,33,33,34,34,35,35,36,36,37,37,38,38,39,39,40,40,41,41,42,42,43,43,44,44,45,45,46,46,47,47,48,48,49,49,50,50,51,51,52,52,53,53,54,54,55,55,56,56,57,57,58,58,59,59,60,60,61,61,62,62],"right_children":[2,4,6,8,10,12,14,16,18,20,22,24,26,28,30,32,34,36,38,40,42,44,46,48,50,52,54,56,58,60,62,64,66,68,70,72,74,76,78,80,82,84,86,88,90,92,94,96,98,100,102,104,106,108,110,112,114,116,118,120,122,124,126,-1,-1,-1,-1,-1,-1,-1,-1,-1,-1,-1,-1,-1,-1,-1,-1,-1,-1,-1,-1,-1,-1,-1,-1,-1,-1,-1,-1,-1,-1,-1,-1,-1,-1,-1,-1,-1,-1,-1,-1,-1,-1,-1,-1,-1,-1,-1,-1,-1,-1,-1,-1,-1,-1,-1,-1,-1,-1,-1,-1,-1,-1,-1,-1],"split_conditions":[3.487E1,-1.1752E2,3.631E1,2.00001E0,1.5E1,3.3E1,-1.2258E2,-1.1835E2,3.41E1,3.39E1,3.408E1,9.5E1,2.4688E0,3.19E2,-1.2185E2,3.416E1,3.371E1,6.9E1,2.2788E0,4E0,-1.1691E2,1.0208E0,2.0938E0,1.41E2,1.9176E0,5.77E2,-1.1938E2,3.911E1,1.7E1,3.868E1,2.4E1,3.405E1,-1.1903E2,2.7E1,1.302E3,1.4E1,3.405E1,3.418E1,3.4896E0,1.05E3,3.296E1,1.8E2,3.424E1,3.4E1,5.2E1,-1.1685E2,4.0208E0,3.9E1,3.61E1,3.541E1,1.11E3,2.65E3,1.348E3,5.5E2,-1.1875E2,1E1,4.052E1,-1.2275E2,3.846E1,3.839E1,-1.2192E2,2.7E2,1.696E3,2.2972113E-2,4.560013E-2,4.4169743E-2,-6.819897E-3,8.536506E-3,8.927704E-2,-1.3182451E-2,2.7141445E-3,-4.5207504E-2,1.4849305E-1,6.934901E-3,-1.293351E-2,1.8465619E-1,6.3306086E-2,6.720077E-2,3.1286485E-2,-6.5495685E-2,-1.801386E-2,-1.3451747E-2,2.08211E-2,8.165136E-2,-6.2938305E-3,-7.848523E-2,2.2911135E-2,-1.1805089E-1,-1.5526343E-2,-1.0779957E-2,4.7226552E-2,-6.7189606E-3,-4.6184637E-2,-3.8168635E-2,-1.4759482E-2,-6.589859E-2,2.1557523E-2,1.1029377E-1,1.868291E-2,-6.73025E-2,-3.0549591E-2,-2.85625E-3,-2.7561713E-2,-2.6543738E-2,-1.3426767E-1,6.2878616E-2,-6.7050937E-3,-1.2009939E-1,-3.739307E-2,-4.6725255E-2,-1.052754E-1,1.0288954E-2,-5.520587E-2,-1.9268195E-1,1.1886836E-2,-5.290192E-3,-5.254787E-2,-1.2710405E-4,-2.622955E-2,1.605347E-2,1.2759325E-1,-2.2076925E-2,3.4995344E-2,4.2073585E-2,-7.6142146E-4,-9.448805E-3,-3.2803867E-2],"split_indices":[2,3,2,5,1,1,3,3,2,2,2,0,4,9,3,2,2,0,4,1,3,4,4,7,4,8,3,2,1,2,1,2,3,1,9,0,2,2,4,8,2,8,2,1,1,3,4,0,2,2,7,9,7,0,3,1,2,3,2,2,3,7,7,0,0,0,0,0,0,0,0,0,0,0,0,0,0,0,0,0,0,0,0,0,0,0,0,0,0,0,0,0,0,0,0,0,0,0,0,0,0,0,0,0,0,0,0,0,0,0,0,0,0,0,0,0,0,0,0,0,0,0,0,0,0,0,0],"split_type":[0,0,0,0,0,0,0,0,0,0,0,0,0,0,0,0,0,0,0,0,0,0,0,0,0,0,0,0,0,0,0,0,0,0,0,0,0,0,0,0,0,0,0,0,0,0,0,0,0,0,0,0,0,0,0,0,0,0,0,0,0,0,0,0,0,0,0,0,0,0,0,0,0,0,0,0,0,0,0,0,0,0,0,0,0,0,0,0,0,0,0,0,0,0,0,0,0,0,0,0,0,0,0,0,0,0,0,0,0,0,0,0,0,0,0,0,0,0,0,0,0,0,0,0,0,0,0],"sum_hessian":[9.411E3,5.621E3,3.79E3,4.573E3,1.048E3,4.41E2,3.349E3,4.134E3,4.39E2,3.41E2,7.07E2,3.28E2,1.13E2,2.94E2,3.055E3,1.116E3,3.018E3,1.86E2,2.53E2,2.06E2,1.35E2,5.31E2,1.76E2,1.1E1,3.17E2,6.9E1,4.4E1,1E1,2.84E2,7.64E2,2.291E3,5.26E2,5.9E2,3.18E2,2.7E3,6E0,1.8E2,1.1E1,2.42E2,9E0,1.97E2,1.12E2,2.3E1,4E0,5.27E2,5.7E1,1.19E2,5E0,6E0,6.4E1,2.53E2,5.8E1,1.1E1,1.1E1,3.3E1,4E0,6E0,6.7E1,2.17E2,6.1E2,1.54E2,1.192E3,1.099E3,3.44E2,1.82E2,8.5E1,5.05E2,2.72E2,4.6E1,6.46E2,2.054E3,2E0,4E0,6.7E1,1.13E2,7E0,4E0,6.1E1,1.81E2,5E0,4E0,4.5E1,1.52E2,4E0,1.08E2,1.5E1,8E0,3E0,1E0,5.16E2,1.1E1,4.6E1,1.1E1,9.6E1,2.3E1,3E0,2E0,5E0,1E0,2.2E1,4.2E1,7.8E1,1.75E2,5.7E1,1E0,2E0,9E0,8E0,3E0,2.9E1,4E0,1E0,3E0,5E0,1E0,2.4E1,4.3E1,9.1E1,1.26E2,5.81E2,2.9E1,1.43E2,1.1E1,4.6E1,1.146E3,9.47E2,1.52E2],"tree_param":{"num_deleted":"0","num_feature":"10","num_nodes":"127","size_leaf_vector":"1"}},{"base_weights":[-4.765869E-5,-1.0403851E-2,1.690993E-2,3.0338857E-3,-4.2571902E-2,7.843843E-2,5.529816E-3,-1.117366E-2,3.551071E-2,-2.099612E-2,-8.557439E-2,5.7237014E-2,1.27608E-1,-2.4715753E-2,1.6964454E-2,1.1933212E-2,-3.2807376E-2,4.60733E-2,-3.0375684E-2,1.3835544E-2,-4.2662457E-2,-1.3252215E-1,-6.1693203E-2,6.3587815E-2,-7.78984E-2,-3.0704007E-1,1.4291836E-1,-3.1786144E-4,-5.7801448E-2,5.9014734E-2,2.2454718E-3,-3.1546704E-2,3.22143E-2,-7.834704E-2,-8.760908E-3,4.9572892E-2,-1.6354555E-1,-8.312251E-2,5.109589E-2,1.4983109E-1,8.247803E-3,-6.153637E-2,-1.0493529E-2,-1.4596878E-1,2.5354207E-2,-4.030581E-2,-1.6196351E-1,1.0790665E-1,5.096757E-2,-1.493929E-1,3.0143857E-2,2.1349588E-2,-1.429717E-1,1.2640078E-1,2.96364E-1,-2.2711884E-2,6.503124E-2,-1.0082854E-2,-1.0740346E-1,3.0844336E-2,1.0937522E-1,-2.673003E-2,1.5418866E-2,-1.1533149E-2,8.107601E-2,1.3125206E-2,-5.786363E-3,-1.9235943E-2,-6.737079E-2,3.8581442E-3,-1.518164E-2,3.3825632E-2,1.22925285E-2,-6.2108885E-2,-2.7243234E-3,-9.781541E-4,-5.2787E-2,2.9954996E-2,-2.200324E-2,1.567418E-2,-1.1103613E-2,-4.364527E-2,-1.5872194E-2,1.668606E-2,-1.3217135E-2,-9.172738E-3,-4.886831E-2,1.5839789E-2,-3.3352282E-2,-1.5761932E-2,1.892076E-2,5.76335E-2,-5.274411E-2,2.1782912E-2,7.82177E-2,1.8357998E-2,-1.5811693E-3,8.268356E-3,-5.0953332E-2,2.9451657E-2,-3.478823E-2,-1.4967442E-3,1.1104059E-2,1.8559176E-2,4.6198763E-2,1.2184579E-1,4.485898E-2,2.6429172E-3,-1.5667686E-2,-2.9837895E-2,2.8337149E-2,-7.286546E-3,7.015251E-2,-3.4042828E-2,3.543526E-2,1.5688196E-2,-2.0894331E-3,4.2629585E-2,-1.6200606E-3,-4.466685E-4,-2.1772949E-2,1.1052922E-2,-3.4469774E-3],"categories":[],"categories_nodes":[],"categories_segments":[],"categories_sizes":[],"default_left":[0,0,0,0,0,0,0,0,0,0,0,0,0,0,0,0,0,0,0,0,0,0,0,0,0,0,0,0,0,0,0,0,0,0,0,0,0,0,0,0,0,0,0,0,0,0,0,0,0,0,0,0,0,0,0,0,0,0,0,0,0,0,0,0,0,0,0,0,0,0,0,0,0,0,0,0,0,0,0,0,0,0,0,0,0,0,0,0,0,0,0,0,0,0,0,0,0,0,0,0,0,0,0,0,0,0,0,0,0,0,0,0,0,0,0,0,0,0,0,0,0,0,0],"id":10,"left_children":[1,3,5,7,9,11,13,15,17,19,21,23,25,27,29,31,33,35,37,39,41,43,45,47,49,51,53,55,57,59,61,63,65,67,69,71,73,75,77,-1,79,81,83,85,87,89,91,93,95,97,99,101,-1,103,105,107,109,111,113,115,117,119,121,-1,-1,-1,-1,-1,-1,-1,-1,-1,-1,-1,-1,-1,-1,-1,-1,-1,-1,-1,-1,-1,-1,-1,-1,-1,-1,-1,-1,-1,-1,-1,-1,-1,-1,-1,-1,-1,-1,-1,-1,-1,-1,-1,-1,-1,-1,-1,-1,-1,-1,-1,-1,-1,-1,-1,-1,-1,-1,-1,-1],"loss_changes":[1.6530743E0,2.5262907E0,2.4985852E0,1.9028149E0,1.5958962E0,5.73349E-1,1.0424567E0,1.4345685E0,8.747927E-1,8.6695665E-1,6.3649607E-1,3.405167E-1,1.1552038E0,6.6755354E-1,1.3534834E0,1.2249824E0,1.6222048E0,8.01842E-1,7.519891E-1,1.1924967E0,4.2921913E-1,4.134214E-1,8.1482315E-1,2.0368385E-1,1.4354298E-1,3.4421033E-1,3.7313676E-1,6.995327E-1,8.297123E-1,8.0101526E-1,6.1915714E-1,9.3043554E-1,5.635029E-1,1.050734E0,8.791508E-1,5.738902E-1,1.190213E-1,7.8530157E-1,4.2594367E-1,0E0,8.721793E-1,3.153813E-1,5.860511E-1,3.426695E-1,6.582249E-2,4.0421903E-1,3.6234415E-1,4.2338032E-1,1.6882014E-1,4.448989E-2,9.089814E-2,1.4223712E-3,0E0,2.5404668E-1,1.8107867E-1,3.3165404E-1,5.9991074E-1,6.2939805E-1,2.4895823E-1,2.9637638E-1,7.632029E-1,5.866009E-1,6.432202E-1,0E0,0E0,0E0,0E0,0E0,0E0,0E0,0E0,0E0,0E0,0E0,0E0,0E0,0E0,0E0,0E0,0E0,0E0,0E0,0E0,0E0,0E0,0E0,0E0,0E0,0E0,0E0,0E0,0E0,0E0,0E0,0E0,0E0,0E0,0E0,0E0,0E0,0E0,0E0,0E0,0E0,0E0,0E0,0E0,0E0,0E0,0E0,0E0,0E0,0E0,0E0,0E0,0E0,0E0,0E0,0E0,0E0,0E0,0E0,0E0],"parents":[2147483647,0,0,1,1,2,2,3,3,4,4,5,5,6,6,7,7,8,8,9,9,10,10,11,11,12,12,13,13,14,14,15,15,16,16,17,17,18,18,19,19,20,20,21,21,22,22,23,23,24,24,25,25,26,26,27,27,28,28,29,29,30,30,31,31,32,32,33,33,34,34,35,35,36,36,37,37,38,38,40,40,41,41,42,42,43,43,44,44,45,45,46,46,47,47,48,48,49,49,50,50,51,51,53,53,54,54,55,55,56,56,57,57,58,58,59,59,60,60,61,61,62,62],"right_children":[2,4,6,8,10,12,14,16,18,20,22,24,26,28,30,32,34,36,38,40,42,44,46,48,50,52,54,56,58,60,62,64,66,68,70,72,74,76,78,-1,80,82,84,86,88,90,92,94,96,98,100,102,-1,104,106,108,110,112,114,116,118,120,122,-1,-1,-1,-1,-1,-1,-1,-1,-1,-1,-1,-1,-1,-1,-1,-1,-1,-1,-1,-1,-1,-1,-1,-1,-1,-1,-1,-1,-1,-1,-1,-1,-1,-1,-1,-1,-1,-1,-1,-1,-1,-1,-1,-1,-1,-1,-1,-1,-1,-1,-1,-1,-1,-1,-1,-1,-1,-1,-1,-1],"split_conditions":[2.542E3,1.132E3,1.296E3,3.33E2,3.425E1,4.98E2,3.184E3,6.58E2,3.863E1,3.2E1,1.858E3,3.95E1,8.95E2,1.687E3,1.81E3,6.2E2,1.302E3,-1.1644E2,-1.213E2,6.9E2,4.52E2,4.88E2,1.72E3,3.39E1,2.6149E0,5.5E2,3.855E1,5.87E2,3.41E1,7.17E2,4.249E3,1.84E2,3.861E1,3.785E1,8.86E2,7.31E2,2.7708E0,2.4E1,3.926E1,1.4983109E-1,-1.1798E2,-1.1833E2,1.554E3,2.7E2,1.928E3,5.15E2,3.62E2,2.00001E0,-1.1794E2,3.64E2,3.4702E0,5.15E2,-1.429717E-1,2E1,3.874E1,3.469E1,1.6E1,9.87E2,4.8E1,1.646E3,-1.1784E2,2.318E3,3.166E3,-1.1533149E-2,8.107601E-2,1.3125206E-2,-5.786363E-3,-1.9235943E-2,-6.737079E-2,3.8581442E-3,-1.518164E-2,3.3825632E-2,1.22925285E-2,-6.2108885E-2,-2.7243234E-3,-9.781541E-4,-5.2787E-2,2.9954996E-2,-2.200324E-2,1.567418E-2,-1.1103613E-2,-4.364527E-2,-1.5872194E-2,1.668606E-2,-1.3217135E-2,-9.172738E-3,-4.886831E-2,1.5839789E-2,-3.3352282E-2,-1.5761932E-2,1.892076E-2,5.76335E-2,-5.274411E-2,2.1782912E-2,7.82177E-2,1.8357998E-2,-1.5811693E-3,8.268356E-3,-5.0953332E-2,2.9451657E-2,-3.478823E-2,-1.4967442E-3,1.1104059E-2,1.8559176E-2,4.6198763E-2,1.2184579E-1,4.485898E-2,2.6429172E-3,-1.5667686E-2,-2.9837895E-2,2.8337149E-2,-7.286546E-3,7.015251E-2,-3.4042828E-2,3.543526E-2,1.5688196E-2,-2.0894331E-3,4.2629585E-2,-1.6200606E-3,-4.466685E-4,-2.1772949E-2,1.1052922E-2,-3.4469774E-3],"split_indices":[9,7,7,8,2,0,9,7,2,1,9,2,7,7,7,9,9,3,3,9,0,8,7,2,4,0,2,0,2,8,9,0,2,2,7,7,4,1,2,0,3,3,7,0,7,0,0,5,3,0,4,0,0,1,2,2,1,0,1,7,3,7,7,0,0,0,0,0,0,0,0,0,0,0,0,0,0,0,0,0,0,0,0,0,0,0,0,0,0,0,0,0,0,0,0,0,0,0,0,0,0,0,0,0,0,0,0,0,0,0,0,0,0,0,0,0,0,0,0,0,0,0,0],"split_type":[0,0,0,0,0,0,0,0,0,0,0,0,0,0,0,0,0,0,0,0,0,0,0,0,0,0,0,0,0,0,0,0,0,0,0,0,0,0,0,0,0,0,0,0,0,0,0,0,0,0,0,0,0,0,0,0,0,0,0,0,0,0,0,0,0,0,0,0,0,0,0,0,0,0,0,0,0,0,0,0,0,0,0,0,0,0,0,0,0,0,0,0,0,0,0,0,0,0,0,0,0,0,0,0,0,0,0,0,0,0,0,0,0,0,0,0,0,0,0,0,0,0,0],"sum_hessian":[9.411E3,5.843E3,3.568E3,4.122E3,1.721E3,5.56E2,3.012E3,2.868E3,1.254E3,1.147E3,5.74E2,3.9E2,1.66E2,8.26E2,2.186E3,1.387E3,1.481E3,1.081E3,1.73E2,4.4E2,7.07E2,1.92E2,3.82E2,3.73E2,1.7E1,5E0,1.61E2,4.76E2,3.5E2,5.66E2,1.62E3,4.41E2,9.46E2,5.11E2,9.7E2,1.064E3,1.7E1,1.05E2,6.8E1,4E0,4.36E2,4.45E2,2.62E2,1.77E2,1.5E1,3.16E2,6.6E1,8.1E1,2.92E2,1E1,7E0,2E0,3E0,1.47E2,1.4E1,3.55E2,1.21E2,1.79E2,1.71E2,3.64E2,2.02E2,5.06E2,1.114E3,4.32E2,9E0,7.73E2,1.73E2,4.67E2,4.4E1,6.4E2,3.3E2,1.26E2,9.38E2,1.3E1,4E0,5.7E1,4.8E1,4.9E1,1.9E1,2.21E2,2.15E2,4E1,4.05E2,8.8E1,1.74E2,2.3E1,1.54E2,1.3E1,2E0,2.83E2,3.3E1,2E0,6.4E1,6.7E1,1.4E1,2.47E2,4.5E1,1E0,9E0,5E0,2E0,1E0,1E0,4.5E1,1.02E2,7E0,7E0,1.72E2,1.83E2,1.8E1,1.03E2,1.7E2,9E0,1.67E2,4E0,2.32E2,1.32E2,1.57E2,4.5E1,3.27E2,1.79E2,6.2E2,4.94E2],"tree_param":{"num_deleted":"0","num_feature":"10","num_nodes":"123","size_leaf_vector":"1"}},{"base_weights":[-1.2101389E-5,-5.807205E-2,1.8663474E-3,-2.1120037E-1,-4.373153E-2,6.6567305E-3,-2.4391863E-2,-4.2074713E-1,-1.3777633E-1,1.15604356E-1,-4.6747927E-2,1.9467327E-1,4.859366E-3,-2.0464322E-2,-2.3221761E-1,-5.206749E-1,1.1833764E-2,-1.7768537E-1,1.4760335E-1,-3.369248E-2,-1.0494306E-1,2.7507177E-1,7.026637E-2,-3.5342938E-4,2.8216235E-2,-3.3398874E-3,-3.7985027E-2,-1.2807414E-1,-3.8603973E-1,-4.820309E-2,-2.1213436E-1,-2.3010394E-1,-3.4497578E-2,6.257229E-2,3.8492205E-3,6.627109E-3,-7.194812E-2,-1.716959E-1,-3.39925E-2,9.22513E-2,3.8676426E-1,1.0635928E-1,7.26374E-3,7.7884467E-3,-2.854733E-2,6.2433943E-2,-1.7621863E-3,-3.548595E-2,3.98468E-3,-4.20548E-2,9.231231E-2,-8.4353626E-2,-1.2414036E-1,-1.2230025E-1,-2.8708506E-2,-2.376938E-2,-9.434864E-2,1.4508534E-2,-1.8222542E-2,3.034702E-2,-8.189593E-3,-5.330988E-2,-1.5080605E-2,1.2587071E-2,-5.470389E-2,2.3606056E-2,-2.211506E-2,9.9641085E-2,-3.4536636E-6,1.6398175E-1,8.720814E-2,5.5927422E-2,2.390864E-2,1.1151859E-2,-8.652259E-3,5.2366745E-6,1.2819437E-2,-1.9559655E-3,-1.7020414E-2,5.0296723E-3,2.4492562E-2,-1.68058E-2,5.7770694E-3,-1.089263E-1,-9.0395305E-3,1.3586834E-2,-2.3437128E-3,-4.249735E-2,-1.0162593E-2,8.0383234E-2,1.444637E-2,1.200983E-2,-3.874555E-2],"categories":[],"categories_nodes":[],"categories_segments":[],"categories_sizes":[],"default_left":[0,0,0,0,0,0,0,0,0,0,0,0,0,0,0,0,0,0,0,0,0,0,0,0,0,0,0,0,0,0,0,0,0,0,0,0,0,0,0,0,0,0,0,0,0,0,0,0,0,0,0,0,0,0,0,0,0,0,0,0,0,0,0,0,0,0,0,0,0,0,0,0,0,0,0,0,0,0,0,0,0,0,0,0,0,0,0,0,0,0,0,0,0],"id":11,"left_children":[1,3,5,7,9,11,13,15,17,-1,19,21,23,25,27,29,-1,31,33,35,37,39,41,43,45,47,49,51,53,-1,-1,55,57,-1,-1,59,61,63,65,67,69,71,73,75,77,79,81,83,85,87,89,91,-1,-1,-1,-1,-1,-1,-1,-1,-1,-1,-1,-1,-1,-1,-1,-1,-1,-1,-1,-1,-1,-1,-1,-1,-1,-1,-1,-1,-1,-1,-1,-1,-1,-1,-1,-1,-1,-1,-1,-1,-1],"loss_changes":[1.0266058E0,6.385661E-1,1.1470872E0,3.2667518E-1,3.6876237E-1,2.605203E0,1.1437032E0,2.964549E-1,2.5401154E-1,0E0,2.0160037E-1,7.108271E-1,9.30215E-1,4.1451758E-1,3.670671E-1,2.2197235E-1,0E0,1.2716454E-1,2.197548E-2,3.4290108E-1,2.2623509E-1,8.627856E-1,6.7445904E-2,1.4342289E0,1.4300652E0,1.6496061E-1,3.6606377E-1,1.7746064E-1,2.3783207E-2,0E0,0E0,1.4060295E-1,1.598506E-2,0E0,0E0,3.523232E-1,2.524274E-1,6.453794E-2,1.1770344E-1,3.9838922E-1,2.5571918E-1,2.5704935E-2,1.403038E-2,1.316434E0,8.6888444E-1,5.69685E-1,8.495627E-1,2.1708459E-1,2.785876E-1,5.3534853E-1,1.4996286E-1,9.4326876E-2,0E0,0E0,0E0,0E0,0E0,0E0,0E0,0E0,0E0,0E0,0E0,0E0,0E0,0E0,0E0,0E0,0E0,0E0,0E0,0E0,0E0,0E0,0E0,0E0,0E0,0E0,0E0,0E0,0E0,0E0,0E0,0E0,0E0,0E0,0E0,0E0,0E0,0E0,0E0,0E0,0E0],"parents":[2147483647,0,0,1,1,2,2,3,3,4,4,5,5,6,6,7,7,8,8,10,10,11,11,12,12,13,13,14,14,15,15,17,17,18,18,19,19,20,20,21,21,22,22,23,23,24,24,25,25,26,26,27,27,28,28,31,31,32,32,35,35,36,36,37,37,38,38,39,39,40,40,41,41,42,42,43,43,44,44,45,45,46,46,47,47,48,48,49,49,50,50,51,51],"right_children":[2,4,6,8,10,12,14,16,18,-1,20,22,24,26,28,30,-1,32,34,36,38,40,42,44,46,48,50,52,54,-1,-1,56,58,-1,-1,60,62,64,66,68,70,72,74,76,78,80,82,84,86,88,90,92,-1,-1,-1,-1,-1,-1,-1,-1,-1,-1,-1,-1,-1,-1,-1,-1,-1,-1,-1,-1,-1,-1,-1,-1,-1,-1,-1,-1,-1,-1,-1,-1,-1,-1,-1,-1,-1,-1,-1,-1,-1],"split_conditions":[-1.2258E2,1.6955E0,-1.1774E2,8.2E1,1.7143E0,3.365E1,3.496E1,4.052E1,3.3E1,1.15604356E-1,3.6E1,6.6852E0,7.17E2,1.8E1,1.9E1,3.895E1,1.1833764E-2,3.6E2,2.44E2,-1.2275E2,-1.2286E2,2.5E1,2.7E1,1.462E3,2.448E3,3.303E1,5.2E1,1.073E3,-1.1699E2,-4.820309E-2,-2.1213436E-1,1.41E2,1.3E1,6.257229E-2,3.8492205E-3,3.851E1,2.3542E0,3.9E1,2.5875E0,3.362E1,1.643E3,8.1093E0,9.042E0,4.29E2,3.426E1,1.7E1,9.35E2,2.5E1,3.353E1,-1.1769E2,1.3E2,3.18E2,-1.2414036E-1,-1.2230025E-1,-2.8708506E-2,-2.376938E-2,-9.434864E-2,1.4508534E-2,-1.8222542E-2,3.034702E-2,-8.189593E-3,-5.330988E-2,-1.5080605E-2,1.2587071E-2,-5.470389E-2,2.3606056E-2,-2.211506E-2,9.9641085E-2,-3.4536636E-6,1.6398175E-1,8.720814E-2,5.5927422E-2,2.390864E-2,1.1151859E-2,-8.652259E-3,5.2366745E-6,1.2819437E-2,-1.9559655E-3,-1.7020414E-2,5.0296723E-3,2.4492562E-2,-1.68058E-2,5.7770694E-3,-1.089263E-1,-9.0395305E-3,1.3586834E-2,-2.3437128E-3,-4.249735E-2,-1.0162593E-2,8.0383234E-2,1.444637E-2,1.200983E-2,-3.874555E-2],"split_indices":[3,4,3,8,4,2,2,2,1,0,1,4,8,1,1,2,0,0,0,3,3,1,1,7,7,2,1,0,3,0,0,0,1,0,0,2,4,0,4,2,9,4,4,0,2,1,0,0,2,3,0,0,0,0,0,0,0,0,0,0,0,0,0,0,0,0,0,0,0,0,0,0,0,0,0,0,0,0,0,0,0,0,0,0,0,0,0,0,0,0,0,0,0],"split_type":[0,0,0,0,0,0,0,0,0,0,0,0,0,0,0,0,0,0,0,0,0,0,0,0,0,0,0,0,0,0,0,0,0,0,0,0,0,0,0,0,0,0,0,0,0,0,0,0,0,0,0,0,0,0,0,0,0,0,0,0,0,0,0,0,0,0,0,0,0,0,0,0,0,0,0,0,0,0,0,0,0,0,0,0,0,0,0,0,0,0,0,0,0],"sum_hessian":[9.411E3,2.94E2,9.117E3,2.4E1,2.7E2,7.711E3,1.406E3,5E0,1.9E1,1E0,2.69E2,7.2E1,7.639E3,1.381E3,2.5E1,4E0,1E0,1.7E1,2E0,2.21E2,4.8E1,4.3E1,2.9E1,6.246E3,1.393E3,6.99E2,6.82E2,1.6E1,9E0,2E0,2E0,1.2E1,5E0,1E0,1E0,1.08E2,1.13E2,2.4E1,2.4E1,1.7E1,2.6E1,1.8E1,1.1E1,4.847E3,1.399E3,6.5E2,7.43E2,1.29E2,5.7E2,6.62E2,2E1,1.5E1,1E0,8E0,1E0,5E0,7E0,1E0,4E0,2.8E1,8E1,1.8E1,9.5E1,1E0,2.3E1,6E0,1.8E1,4E0,1.3E1,8E0,1.8E1,3E0,1.5E1,6E0,5E0,3.966E3,8.81E2,7.86E2,6.13E2,1.93E2,4.57E2,2.07E2,5.36E2,1E0,1.28E2,1.26E2,4.44E2,4.9E1,6.13E2,3E0,1.7E1,4E0,1.1E1],"tree_param":{"num_deleted":"0","num_feature":"10","num_nodes":"93","size_leaf_vector":"1"}},{"base_weights":[-2.9106926E-5,7.467368E-3,-1.0804069E-2,1.5698434E-1,5.997491E-3,2.4673399E-3,-4.1044246E-2,8.12052E-2,2.0274667E-1,1.2248146E-2,-1.2484479E-2,3.465849E-2,-1.8552525E-2,-3.0864844E-2,-1.08530246E-1,8.7113835E-2,-6.4314366E-3,2.2701438E-1,2.1444703E-2,7.2894203E-3,1.1392877E-1,-2.2623101E-2,8.81411E-3,6.0781233E-2,-8.835332E-3,-1.5121333E-1,-1.2215249E-2,-1.706395E-2,-8.735675E-2,-1.5080468E-1,-6.957214E-2,5.1845983E-2,3.4338675E-2,1.6230313E-1,3.0516338E-1,3.5409212E-2,-5.1620007E-3,1.3642299E-1,4.2530466E-3,2.394973E-1,5.8728E-2,-1.9621775E-2,-1.23607986E-1,4.459325E-2,-1.5071293E-2,7.757735E-2,2.7066527E-2,-1.168057E-1,3.5201581E-3,8.232701E-2,-2.581497E-1,-2.8557388E-2,5.308749E-2,1.019218E-1,-2.3097495E-2,-6.1115995E-2,-1.452011E-1,-6.443882E-2,-2.0009683E-1,1.2194443E-1,-9.786534E-2,1.9396147E-2,-1.1578561E-3,6.2587194E-2,4.3258668E-5,4.091263E-5,9.9864215E-2,3.2587054E-3,1.1991215E-2,2.313517E-2,5.8204513E-2,2.1519968E-3,-1.6095554E-2,1.2335062E-1,4.3595918E-2,-3.0742101E-2,2.3068223E-2,-2.1255933E-2,-4.019226E-3,-9.119647E-2,-2.6518287E-2,8.874722E-3,4.7051433E-2,-1.06521305E-2,8.066439E-3,3.386298E-2,1.0976851E-2,3.1587973E-2,3.7077216E-3,-3.9804246E-2,1.896279E-2,3.4700304E-2,-2.5704294E-3,8.254474E-2,-3.9766706E-3,-1.649019E-1,-5.9783537E-2,-2.2716748E-3,-1.8159464E-2,1.7417952E-2,-7.884968E-2,5.3513486E-2,-1.1219272E-2,3.018728E-2,-8.803079E-3,8.925691E-2,-1.9750977E-2,-6.416367E-2,-2.223959E-2,-3.673205E-2,3.8117003E-2,3.3263683E-2,-6.284142E-2,-2.6192092E-3,5.9358954E-2,2.5216628E-2,-3.3808827E-2],"categories":[],"categories_nodes":[],"categories_segments":[],"categories_sizes":[],"default_left":[0,0,0,0,0,0,0,0,0,0,0,0,0,0,0,0,0,0,0,0,0,0,0,0,0,0,0,0,0,0,0,0,0,0,0,0,0,0,0,0,0,0,0,0,0,0,0,0,0,0,0,0,0,0,0,0,0,0,0,0,0,0,0,0,0,0,0,0,0,0,0,0,0,0,0,0,0,0,0,0,0,0,0,0,0,0,0,0,0,0,0,0,0,0,0,0,0,0,0,0,0,0,0,0,0,0,0,0,0,0,0,0,0,0,0,0,0],"id":12,"left_children":[1,3,5,7,9,11,13,15,17,19,21,23,25,27,29,31,-1,33,35,37,39,41,43,45,47,49,51,53,55,57,59,61,-1,63,65,67,-1,69,71,73,75,77,79,81,83,85,87,89,91,93,95,97,99,101,103,105,107,109,111,113,115,-1,-1,-1,-1,-1,-1,-1,-1,-1,-1,-1,-1,-1,-1,-1,-1,-1,-1,-1,-1,-1,-1,-1,-1,-1,-1,-1,-1,-1,-1,-1,-1,-1,-1,-1,-1,-1,-1,-1,-1,-1,-1,-1,-1,-1,-1,-1,-1,-1,-1,-1,-1,-1,-1,-1,-1],"loss_changes":[7.603278E-1,1.2190106E0,1.5500368E0,1.7079878E-1,6.353061E-1,1.8174582E0,8.058976E-1,1.52101815E-2,1.4032447E-1,2.0709534E0,3.0035377E-1,1.2060219E0,1.3643038E0,7.9763925E-1,2.4313557E-1,1.4320508E-2,0E0,9.712756E-2,3.3080122E-3,1.536051E0,1.3098476E0,2.8308412E-1,3.843871E-1,3.7334132E-1,5.3268784E-1,1.8693255E0,1.6577896E0,5.946264E-1,2.962196E-1,2.9787874E-1,4.5626065E-1,8.097667E-3,0E0,1.3517398E-1,1.0140908E-1,1.3706274E-5,0E0,2.9243672E-1,6.4803123E-1,8.779695E-1,4.0028545E-1,2.9114673E-1,1.446293E-1,2.9864058E-1,2.3247291E-1,6.3537335E-1,2.5411326E-1,1.2555474E-1,4.8767582E-1,4.459777E-1,7.6574135E-1,8.329015E-1,5.037984E-1,4.3274575E-1,6.103566E-1,2.5660616E-1,2.8675866E-1,3.265527E-1,1.5732765E-1,1.1085507E-1,2.037301E-1,0E0,0E0,0E0,0E0,0E0,0E0,0E0,0E0,0E0,0E0,0E0,0E0,0E0,0E0,0E0,0E0,0E0,0E0,0E0,0E0,0E0,0E0,0E0,0E0,0E0,0E0,0E0,0E0,0E0,0E0,0E0,0E0,0E0,0E0,0E0,0E0,0E0,0E0,0E0,0E0,0E0,0E0,0E0,0E0,0E0,0E0,0E0,0E0,0E0,0E0,0E0,0E0,0E0,0E0,0E0,0E0],"parents":[2147483647,0,0,1,1,2,2,3,3,4,4,5,5,6,6,7,7,8,8,9,9,10,10,11,11,12,12,13,13,14,14,15,15,17,17,18,18,19,19,20,20,21,21,22,22,23,23,24,24,25,25,26,26,27,27,28,28,29,29,30,30,31,31,33,33,34,34,35,35,37,37,38,38,39,39,40,40,41,41,42,42,43,43,44,44,45,45,46,46,47,47,48,48,49,49,50,50,51,51,52,52,53,53,54,54,55,55,56,56,57,57,58,58,59,59,60,60],"right_children":[2,4,6,8,10,12,14,16,18,20,22,24,26,28,30,32,-1,34,36,38,40,42,44,46,48,50,52,54,56,58,60,62,-1,64,66,68,-1,70,72,74,76,78,80,82,84,86,88,90,92,94,96,98,100,102,104,106,108,110,112,114,116,-1,-1,-1,-1,-1,-1,-1,-1,-1,-1,-1,-1,-1,-1,-1,-1,-1,-1,-1,-1,-1,-1,-1,-1,-1,-1,-1,-1,-1,-1,-1,-1,-1,-1,-1,-1,-1,-1,-1,-1,-1,-1,-1,-1,-1,-1,-1,-1,-1,-1,-1,-1,-1,-1,-1,-1],"split_conditions":[3.454E1,-1.1947E2,-1.2065E2,3.1597E0,-1.1776E2,3.793E1,4.175E0,6.61E2,6.871E0,2.00001E0,3.6E3,1.509E3,3.797E1,3.5E1,2.558E3,3.4E1,-6.4314366E-3,4.98E2,9.042E0,3.366E1,3.4896E0,6.76E2,2.258E3,4.7612E0,3.677E1,-1.2134E2,-1.2129E2,9.5E1,2.4348E0,5.78E2,3.81E2,3.2E1,3.4338675E-2,1.022E3,2.1E1,2.61E2,-5.1620007E-3,2.5E1,3.426E1,-1.1801E2,3.41E1,-1.1769E2,1.595E3,5.83E3,8.742E3,-1.2132E2,-1.2202E2,4.3523E0,3.708E1,3.625E0,1.09E2,3.868E1,4.052E1,3.087E0,8E0,1.4E1,-1.1938E2,5.2571E0,-1.206E2,1.6E1,-1.205E2,1.9396147E-2,-1.1578561E-3,6.2587194E-2,4.3258668E-5,4.091263E-5,9.9864215E-2,3.2587054E-3,1.1991215E-2,2.313517E-2,5.8204513E-2,2.1519968E-3,-1.6095554E-2,1.2335062E-1,4.3595918E-2,-3.0742101E-2,2.3068223E-2,-2.1255933E-2,-4.019226E-3,-9.119647E-2,-2.6518287E-2,8.874722E-3,4.7051433E-2,-1.06521305E-2,8.066439E-3,3.386298E-2,1.0976851E-2,3.1587973E-2,3.7077216E-3,-3.9804246E-2,1.896279E-2,3.4700304E-2,-2.5704294E-3,8.254474E-2,-3.9766706E-3,-1.649019E-1,-5.9783537E-2,-2.2716748E-3,-1.8159464E-2,1.7417952E-2,-7.884968E-2,5.3513486E-2,-1.1219272E-2,3.018728E-2,-8.803079E-3,8.925691E-2,-1.9750977E-2,-6.416367E-2,-2.223959E-2,-3.673205E-2,3.8117003E-2,3.3263683E-2,-6.284142E-2,-2.6192092E-3,5.9358954E-2,2.5216628E-2,-3.3808827E-2],"split_indices":[2,3,3,4,3,2,4,8,4,5,9,7,2,1,9,1,0,8,4,2,4,0,7,4,2,3,3,0,4,7,0,1,0,7,1,0,0,1,2,3,2,3,7,9,9,3,3,4,2,4,8,2,2,4,1,0,3,4,3,1,3,0,0,0,0,0,0,0,0,0,0,0,0,0,0,0,0,0,0,0,0,0,0,0,0,0,0,0,0,0,0,0,0,0,0,0,0,0,0,0,0,0,0,0,0,0,0,0,0,0,0,0,0,0,0,0,0],"split_type":[0,0,0,0,0,0,0,0,0,0,0,0,0,0,0,0,0,0,0,0,0,0,0,0,0,0,0,0,0,0,0,0,0,0,0,0,0,0,0,0,0,0,0,0,0,0,0,0,0,0,0,0,0,0,0,0,0,0,0,0,0,0,0,0,0,0,0,0,0,0,0,0,0,0,0,0,0,0,0,0,0,0,0,0,0,0,0,0,0,0,0,0,0,0,0,0,0,0,0,0,0,0,0,0,0,0,0,0,0,0,0,0,0,0,0,0,0],"sum_hessian":[9.411E3,5.55E3,3.861E3,5.3E1,5.497E3,2.684E3,1.177E3,2.1E1,3.2E1,4.108E3,1.389E3,1.06E3,1.624E3,1.024E3,1.53E2,2E1,1E0,2.8E1,4E0,3.918E3,1.9E2,9.41E2,4.48E2,6.62E2,3.98E2,7.3E1,1.551E3,8.24E2,2E2,7.2E1,8.1E1,1E1,1E1,1.7E1,1.1E1,3E0,1E0,8.9E1,3.829E3,5.7E1,1.33E2,9.15E2,2.6E1,1.79E2,2.69E2,4.41E2,2.21E2,4E1,3.58E2,2.3E1,5E1,1.241E3,3.1E2,3.9E1,7.85E2,1.39E2,6.1E1,2.7E1,4.5E1,1E1,7.1E1,8E0,2E0,1.3E1,4E0,1E0,1E1,1E0,2E0,4.5E1,4.4E1,3.646E3,1.83E2,1.9E1,3.8E1,1.3E1,1.2E2,9.8E1,8.17E2,3E0,2.3E1,1.59E2,2E1,1.81E2,8.8E1,2.36E2,2.05E2,3.4E1,1.87E2,3.7E1,3E0,3.4E1,3.24E2,7E0,1.6E1,7E0,4.3E1,7.5E2,4.91E2,3.06E2,4E0,2.5E1,1.4E1,3.7E1,7.48E2,1E0,1.38E2,3E1,3.1E1,2.1E1,6E0,1E0,4.4E1,4E0,6E0,5E0,6.6E1],"tree_param":{"num_deleted":"0","num_feature":"10","num_nodes":"117","size_leaf_vector":"1"}},{"base_weights":[9.810626E-6,-8.892096E-3,8.247122E-3,8.461012E-3,-2.4583567E-2,3.200334E-2,-1.2849567E-3,-1.1220811E-3,6.072533E-2,-3.919056E-2,-4.2354222E-3,4.1164525E-2,5.5223554E-3,-2.5184747E-2,9.038162E-3,-3.7854566E-4,-4.5058694E-1,6.7373306E-2,-2.0790282E-1,-8.932582E-2,-2.8797146E-2,1.9687496E-1,-6.479303E-3,6.4876385E-2,2.4276694E-2,-1.5297548E-2,6.234454E-2,-3.9322145E-2,5.8695086E-4,3.4128997E-2,1.2757583E-3,3.8000492E-3,-7.362801E-2,-2.572317E-1,5.4467585E-2,7.873965E-2,-4.929368E-2,3.9993368E-2,-1.3049908E-1,1.5408755E-2,-4.268927E-2,3.2862663E-1,-2.6952362E-2,2.0441521E-2,-2.1572001E-2,2.5692445E-1,6.0182873E-2,-6.271488E-2,2.7952785E-2,2.3154545E-1,-2.0935088E-2,1.7138965E-1,2.6136063E-2,-5.8381494E-2,-1.0867846E-2,1.121497E-2,-9.65173E-2,-1.1047651E-2,4.838796E-2,-1.561057E-2,1.30550405E-2,4.738018E-3,-7.4154343E-3,-4.5338455E-3,-5.4998927E-2,3.555127E-2,1.1772043E-2,-8.6136684E-2,3.7562992E-2,2.3672123E-2,-4.6404935E-2,-2.149209E-2,-7.499857E-2,3.4565965E-4,4.5569517E-2,-3.6345977E-2,-1.0254642E-2,1.6811872E-1,4.410267E-3,7.264233E-3,-2.0740414E-2,-5.639661E-4,1.8404815E-2,-5.1960433E-3,-4.9622748E-2,2.922821E-3,1.5064728E-1,-3.5535827E-2,2.0386335E-2,5.77229E-3,-4.195395E-2,-1.2680157E-2,9.872467E-3,1.644516E-3,8.269856E-2,6.330576E-3,-1.2442094E-2,-1.2283173E-2,6.477107E-2,-1.0581717E-2,2.9825618E-2,4.3037225E-2,-1.8527783E-2,2.4711741E-2,-7.7315746E-3,1.6940333E-2,-7.5574066E-3,-1.1072732E-2,-4.5313697E-2,3.8447222E-3,-1.3680684E-2,1.5477309E-2,-3.9067734E-2,-1.7990324E-3,-1.7235756E-2,1.0880233E-2,-3.4857057E-3],"categories":[],"categories_nodes":[],"categories_segments":[],"categories_sizes":[],"default_left":[0,0,0,0,0,0,0,0,0,0,0,0,0,0,0,0,0,0,0,0,0,0,0,0,0,0,0,0,0,0,0,0,0,0,0,0,0,0,0,0,0,0,0,0,0,0,0,0,0,0,0,0,0,0,0,0,0,0,0,0,0,0,0,0,0,0,0,0,0,0,0,0,0,0,0,0,0,0,0,0,0,0,0,0,0,0,0,0,0,0,0,0,0,0,0,0,0,0,0,0,0,0,0,0,0,0,0,0,0,0,0,0,0,0,0,0,0],"id":13,"left_children":[1,3,5,7,9,11,13,15,17,19,21,23,25,27,29,31,33,35,-1,37,39,41,43,45,47,49,51,53,55,57,59,61,63,-1,-1,65,67,69,71,73,75,77,79,81,83,85,87,89,91,93,95,97,99,101,103,105,107,109,111,113,115,-1,-1,-1,-1,-1,-1,-1,-1,-1,-1,-1,-1,-1,-1,-1,-1,-1,-1,-1,-1,-1,-1,-1,-1,-1,-1,-1,-1,-1,-1,-1,-1,-1,-1,-1,-1,-1,-1,-1,-1,-1,-1,-1,-1,-1,-1,-1,-1,-1,-1,-1,-1,-1,-1,-1,-1],"loss_changes":[6.9023436E-1,1.2320741E0,1.1071362E0,1.076403E0,7.060411E-1,3.3940876E-1,8.6128175E-1,6.070581E-1,1.7152894E0,7.1807647E-1,4.4983575E-1,4.148847E-1,4.2802837E-1,3.8367814E-1,4.7479403E-1,5.5581474E-1,9.2724466E-1,4.428128E-1,0E0,1.2671237E0,7.050465E-1,3.3324307E-1,4.0024793E-1,3.739339E-1,1.965045E-1,3.7361807E-1,3.7851125E-1,3.6814356E-1,3.8706017E-1,3.7157768E-1,3.7077093E-1,5.8799464E-1,6.2631273E-1,0E0,0E0,4.6969557E-1,1.2810094E0,4.5158938E-1,1.248102E0,5.3493977E-1,5.785892E-1,5.010698E-1,1.2465645E-2,3.233602E-1,3.8303894E-1,6.0127914E-1,5.952916E-1,1.6072544E-1,2.0495394E-1,5.8327615E-2,2.2535384E-1,2.3568314E-1,3.365197E-1,2.863394E-1,3.8288972E-1,5.5827355E-1,1.1468747E-1,1.1520252E-1,2.5730348E-1,3.077866E-1,6.292945E-1,0E0,0E0,0E0,0E0,0E0,0E0,0E0,0E0,0E0,0E0,0E0,0E0,0E0,0E0,0E0,0E0,0E0,0E0,0E0,0E0,0E0,0E0,0E0,0E0,0E0,0E0,0E0,0E0,0E0,0E0,0E0,0E0,0E0,0E0,0E0,0E0,0E0,0E0,0E0,0E0,0E0,0E0,0E0,0E0,0E0,0E0,0E0,0E0,0E0,0E0,0E0,0E0,0E0,0E0,0E0,0E0],"parents":[2147483647,0,0,1,1,2,2,3,3,4,4,5,5,6,6,7,7,8,8,9,9,10,10,11,11,12,12,13,13,14,14,15,15,16,16,17,17,19,19,20,20,21,21,22,22,23,23,24,24,25,25,26,26,27,27,28,28,29,29,30,30,31,31,32,32,35,35,36,36,37,37,38,38,39,39,40,40,41,41,42,42,43,43,44,44,45,45,46,46,47,47,48,48,49,49,50,50,51,51,52,52,53,53,54,54,55,55,56,56,57,57,58,58,59,59,60,60],"right_children":[2,4,6,8,10,12,14,16,18,20,22,24,26,28,30,32,34,36,-1,38,40,42,44,46,48,50,52,54,56,58,60,62,64,-1,-1,66,68,70,72,74,76,78,80,82,84,86,88,90,92,94,96,98,100,102,104,106,108,110,112,114,116,-1,-1,-1,-1,-1,-1,-1,-1,-1,-1,-1,-1,-1,-1,-1,-1,-1,-1,-1,-1,-1,-1,-1,-1,-1,-1,-1,-1,-1,-1,-1,-1,-1,-1,-1,-1,-1,-1,-1,-1,-1,-1,-1,-1,-1,-1,-1,-1,-1,-1,-1,-1,-1,-1,-1,-1],"split_conditions":[2.052E3,7.81E2,1.305E3,1.562E3,-1.1822E2,3.796E1,2.978E3,5.05E2,5.05E2,3.4E1,6E0,4.2344E0,4.74E2,6.1E2,1.71E3,-1.1707E2,4.39E2,4.28E2,-2.0790282E-1,3.391E1,3.421E1,1.657E3,2.8214E0,2.44E2,4.3523E0,2.49E2,1.064E3,-1.1815E2,3.5833E0,5.27E2,8.19E2,3.775E1,3.377E1,-2.572317E-1,5.4467585E-2,4.3882E0,6.81E2,-1.1825E2,2.7857E0,2.061E3,1.232E3,3.371E1,3.368E1,3.93E2,4.59E2,2.12E2,7.81E2,-1.1835E2,1E1,3.853E1,-1.2198E2,8.76E2,5.74E2,3.384E1,-1.1809E2,1.961E3,6.32E2,6.3568E0,9.51E2,2.379E3,3.166E3,4.738018E-3,-7.4154343E-3,-4.5338455E-3,-5.4998927E-2,3.555127E-2,1.1772043E-2,-8.6136684E-2,3.7562992E-2,2.3672123E-2,-4.6404935E-2,-2.149209E-2,-7.499857E-2,3.4565965E-4,4.5569517E-2,-3.6345977E-2,-1.0254642E-2,1.6811872E-1,4.410267E-3,7.264233E-3,-2.0740414E-2,-5.639661E-4,1.8404815E-2,-5.1960433E-3,-4.9622748E-2,2.922821E-3,1.5064728E-1,-3.5535827E-2,2.0386335E-2,5.77229E-3,-4.195395E-2,-1.2680157E-2,9.872467E-3,1.644516E-3,8.269856E-2,6.330576E-3,-1.2442094E-2,-1.2283173E-2,6.477107E-2,-1.0581717E-2,2.9825618E-2,4.3037225E-2,-1.8527783E-2,2.4711741E-2,-7.7315746E-3,1.6940333E-2,-7.5574066E-3,-1.1072732E-2,-4.5313697E-2,3.8447222E-3,-1.3680684E-2,1.5477309E-2,-3.9067734E-2,-1.7990324E-3,-1.7235756E-2,1.0880233E-2,-3.4857057E-3],"split_indices":[9,7,7,9,3,2,9,8,0,2,1,4,0,8,7,3,0,8,0,2,2,9,4,0,4,7,7,3,4,8,0,2,2,0,0,4,7,3,4,7,9,2,2,0,0,0,7,3,1,2,3,7,8,2,3,7,0,4,0,7,7,0,0,0,0,0,0,0,0,0,0,0,0,0,0,0,0,0,0,0,0,0,0,0,0,0,0,0,0,0,0,0,0,0,0,0,0,0,0,0,0,0,0,0,0,0,0,0,0,0,0,0,0,0,0,0,0],"split_type":[0,0,0,0,0,0,0,0,0,0,0,0,0,0,0,0,0,0,0,0,0,0,0,0,0,0,0,0,0,0,0,0,0,0,0,0,0,0,0,0,0,0,0,0,0,0,0,0,0,0,0,0,0,0,0,0,0,0,0,0,0,0,0,0,0,0,0,0,0,0,0,0,0,0,0,0,0,0,0,0,0,0,0,0,0,0,0,0,0,0,0,0,0,0,0,0,0,0,0,0,0,0,0,0,0,0,0,0,0,0,0,0,0,0,0,0,0],"sum_hessian":[9.411E3,4.523E3,4.888E3,2.148E3,2.375E3,1.399E3,3.489E3,1.816E3,3.32E2,1.382E3,9.93E2,1.039E3,3.6E2,1.052E3,2.437E3,1.814E3,2E0,3.3E2,2E0,2.36E2,1.146E3,1E1,9.83E2,4.31E2,6.08E2,2.64E2,9.6E1,6.79E2,3.73E2,5.75E2,1.862E3,1.717E3,9.7E1,1E0,1E0,3.01E2,2.9E1,5.7E1,1.79E2,2.74E2,8.72E2,6E0,4E0,3.53E2,6.3E2,9E0,4.22E2,2.4E1,5.84E2,5E0,2.59E2,2.3E1,7.3E1,4.06E2,2.73E2,3.37E2,3.6E1,1.38E2,4.37E2,7.65E2,1.097E3,1.209E3,5.08E2,6.4E1,3.3E1,1.49E2,1.52E2,1.2E1,1.7E1,4.8E1,9E0,1.21E2,5.8E1,2.49E2,2.5E1,8.4E1,7.88E2,3E0,3E0,2E0,2E0,2.29E2,1.24E2,6.13E2,1.7E1,5E0,4E0,1.7E1,4.05E2,1.2E1,1.2E1,3.8E1,5.46E2,1E0,4E0,8.5E1,1.74E2,4E0,1.9E1,4E1,3.3E1,6E0,4E2,3.7E1,2.36E2,1.5E2,1.87E2,1.8E1,1.8E1,8.2E1,5.6E1,4.3E2,7E0,6.23E2,1.42E2,5.65E2,5.32E2],"tree_param":{"num_deleted":"0","num_feature":"10","num_nodes":"117","size_leaf_vector":"1"}},{"base_weights":[-2.215023E-5,2.4023936E-3,-2.1321315E-2,9.514624E-4,4.5863066E-2,-1.9457422E-2,-3.7417907E-1,3.0938303E-3,-3.804589E-2,2.3746926E-1,3.9182615E-2,-7.231697E-3,-5.01072E-2,-1.448177E-1,9.001065E-3,3.226157E-4,4.056171E-2,-4.0526513E-2,2.3379159E-1,-2.986207E-2,2.9203796E-1,8.862469E-2,1.4933214E-2,-1.3399042E-1,-4.3915E-3,-4.1357633E-2,-1.17076166E-1,1.2020016E-1,-1.9421456E-4,-1.1713892E-2,6.500832E-2,-2.9766988E-2,-1.134987E-1,8.1670195E-2,1.7769672E-2,7.617974E-2,1.2189508E-1,4.1066647E-2,1.3416854E-1,-4.167833E-2,4.3114543E-2,-3.8935184E-1,-3.770407E-2,6.988538E-2,-1.0864133E-2,-1.3670714E-1,-3.403473E-2,-5.5283144E-2,-1.9838318E-1,1.2288181E-2,9.28037E-2,2.2022612E-3,-2.4641114E-3,8.559879E-2,-7.2734198E-3,1.5521708E-2,4.2568594E-2,-2.6374266E-3,-1.8458178E-2,-8.130102E-2,-2.4064563E-2,3.0302668E-2,1.027012E-2,9.10626E-3,4.2180777E-2,-3.2139875E-3,5.151899E-2,-5.569239E-3,-4.288619E-2,3.7038804E-3,3.3540476E-2,-1.3651438E-1,-2.8839542E-2,1.2821961E-2,-2.4980558E-2,1.0457512E-2,1.961175E-1,1.7765712E-2,-4.7424245E-3,-5.0211884E-2,5.309186E-2,3.6304365E-3,-1.7339595E-2,2.4210835E-2,-2.0196423E-2,-6.6032E-2,-1.578083E-2],"categories":[],"categories_nodes":[],"categories_segments":[],"categories_sizes":[],"default_left":[0,0,0,0,0,0,0,0,0,0,0,0,0,0,0,0,0,0,0,0,0,0,0,0,0,0,0,0,0,0,0,0,0,0,0,0,0,0,0,0,0,0,0,0,0,0,0,0,0,0,0,0,0,0,0,0,0,0,0,0,0,0,0,0,0,0,0,0,0,0,0,0,0,0,0,0,0,0,0,0,0,0,0,0,0,0,0],"id":14,"left_children":[1,3,5,7,9,11,13,15,17,19,21,23,25,-1,-1,27,29,31,33,-1,35,37,39,41,43,45,47,49,51,53,55,57,59,-1,-1,61,-1,63,65,67,69,71,73,75,77,79,81,83,85,-1,-1,-1,-1,-1,-1,-1,-1,-1,-1,-1,-1,-1,-1,-1,-1,-1,-1,-1,-1,-1,-1,-1,-1,-1,-1,-1,-1,-1,-1,-1,-1,-1,-1,-1,-1,-1,-1],"loss_changes":[4.8609403E-1,5.328632E-1,6.254166E-1,6.8344605E-1,3.4013945E-1,3.5861537E-1,2.338466E-1,8.0509657E-1,2.967378E-1,1.9458109E-1,3.1639585E-1,2.4638511E-1,1.5512222E-1,0E0,0E0,4.4741008E-1,6.831929E-1,3.2873845E-1,1.071687E-2,0E0,1.6639131E-1,1.8293011E-1,2.8737155E-1,3.5413712E-1,3.2383466E-1,1.6501841E-1,1.4478314E-1,4.5195103E-1,4.3459472E-1,6.434139E-1,3.6402416E-1,2.459493E-1,2.6134604E-1,0E0,0E0,7.0802495E-4,0E0,4.2648166E-2,2.412864E-1,1.378005E-1,2.5222546E-1,3.3309042E-2,4.7543496E-2,1.0815206E0,2.1541193E-1,1.9314775E-1,2.4957699E-1,3.6536675E-2,2.9590905E-2,0E0,0E0,0E0,0E0,0E0,0E0,0E0,0E0,0E0,0E0,0E0,0E0,0E0,0E0,0E0,0E0,0E0,0E0,0E0,0E0,0E0,0E0,0E0,0E0,0E0,0E0,0E0,0E0,0E0,0E0,0E0,0E0,0E0,0E0,0E0,0E0,0E0,0E0],"parents":[2147483647,0,0,1,1,2,2,3,3,4,4,5,5,6,6,7,7,8,8,9,9,10,10,11,11,12,12,15,15,16,16,17,17,18,18,20,20,21,21,22,22,23,23,24,24,25,25,26,26,27,27,28,28,29,29,30,30,31,31,32,32,35,35,37,37,38,38,39,39,40,40,41,41,42,42,43,43,44,44,45,45,46,46,47,47,48,48],"right_children":[2,4,6,8,10,12,14,16,18,20,22,24,26,-1,-1,28,30,32,34,-1,36,38,40,42,44,46,48,50,52,54,56,58,60,-1,-1,62,-1,64,66,68,70,72,74,76,78,80,82,84,86,-1,-1,-1,-1,-1,-1,-1,-1,-1,-1,-1,-1,-1,-1,-1,-1,-1,-1,-1,-1,-1,-1,-1,-1,-1,-1,-1,-1,-1,-1,-1,-1,-1,-1,-1,-1,-1,-1],"split_conditions":[-1.1739E2,7.095E3,3.526E1,2.823E3,2.075E0,3.406E1,-1.1644E2,8.19E2,1.924E3,3.408E1,3.78E3,1.07E2,-1.1657E2,-1.448177E-1,9.001065E-3,3.353E1,1.7E1,3.5E1,4.1E1,-2.986207E-2,5.102E3,1.386E3,1.747E3,3.296E1,4.77E2,8.15E2,3.158E3,1.9E1,1.084E3,1.8446E0,3.4E1,3.425E1,1.5938E0,8.1670195E-2,1.7769672E-2,1.557E3,1.2189508E-1,3.87E1,3.2596E0,2.2E1,5.2297E0,2.2E1,-1.1707E2,2.19E2,1.7279E0,4.9E1,2.3687E0,1.3696E0,1.101E3,1.2288181E-2,9.28037E-2,2.2022612E-3,-2.4641114E-3,8.559879E-2,-7.2734198E-3,1.5521708E-2,4.2568594E-2,-2.6374266E-3,-1.8458178E-2,-8.130102E-2,-2.4064563E-2,3.0302668E-2,1.027012E-2,9.10626E-3,4.2180777E-2,-3.2139875E-3,5.151899E-2,-5.569239E-3,-4.288619E-2,3.7038804E-3,3.3540476E-2,-1.3651438E-1,-2.8839542E-2,1.2821961E-2,-2.4980558E-2,1.0457512E-2,1.961175E-1,1.7765712E-2,-4.7424245E-3,-5.0211884E-2,5.309186E-2,3.6304365E-3,-1.7339595E-2,2.4210835E-2,-2.0196423E-2,-6.6032E-2,-1.578083E-2],"split_indices":[3,9,2,7,4,2,3,8,0,2,7,7,3,0,0,2,1,1,1,0,7,8,8,2,7,9,9,1,7,4,1,2,4,0,0,0,0,2,4,1,4,1,3,0,4,1,4,4,0,0,0,0,0,0,0,0,0,0,0,0,0,0,0,0,0,0,0,0,0,0,0,0,0,0,0,0,0,0,0,0,0,0,0,0,0,0,0],"split_type":[0,0,0,0,0,0,0,0,0,0,0,0,0,0,0,0,0,0,0,0,0,0,0,0,0,0,0,0,0,0,0,0,0,0,0,0,0,0,0,0,0,0,0,0,0,0,0,0,0,0,0,0,0,0,0,0,0,0,0,0,0,0,0,0,0,0,0,0,0,0,0,0,0,0,0,0,0,0,0,0,0,0,0,0,0,0,0],"sum_hessian":[9.411E3,8.45E3,9.61E2,8.178E3,2.72E2,9.57E2,4E0,7.753E3,4.25E2,8E0,2.64E2,6.85E2,2.72E2,3E0,1E0,7.22E3,5.33E2,4.22E2,3E0,1E0,7E0,8.6E1,1.78E2,1.4E1,6.71E2,2.42E2,3E1,3E1,7.19E3,1.7E2,3.63E2,3.69E2,5.3E1,2E0,1E0,3E0,4E0,4.3E1,4.3E1,5.9E1,1.19E2,3E0,1.1E1,5.3E1,6.18E2,1.6E1,2.26E2,1.8E1,1.2E1,2.2E1,8E0,3.707E3,3.483E3,6E0,1.64E2,3.11E2,5.2E1,2.23E2,1.46E2,8E0,4.5E1,1E0,2E0,4E1,3E0,9E0,3.4E1,4.9E1,1E1,8.3E1,3.6E1,2E0,1E0,4E0,7E0,5.1E1,2E0,4E1,5.78E2,1.5E1,1E0,7.7E1,1.49E2,1E0,1.7E1,1E1,2E0],"tree_param":{"num_deleted":"0","num_feature":"10","num_nodes":"87","size_leaf_vector":"1"}},{"base_weights":[1.1537008E-5,-5.3482596E-3,9.237387E-3,3.5082942E-3,-1.9795032E-2,2.6795141E-2,-1.6501137E-3,-6.9986316E-3,2.4240153E-2,-2.8002972E-2,1.3244411E-2,1.8351912E-2,5.389485E-2,-1.9349677E-2,6.8635014E-3,5.258532E-3,-2.820201E-2,2.6399089E-2,-1.2403414E-1,-4.551439E-2,-1.4825475E-2,1.4961264E-2,-1.1390091E-1,2.0977747E-1,1.6808331E-2,6.725994E-2,-1.1701107E-2,-2.35395E-2,2.6958817E-1,6.140801E-2,3.4895295E-3,1.7739128E-3,1.405771E-1,1.2829895E-1,-2.9696869E-2,7.434094E-2,2.1649983E-2,-4.3175423E-1,1.1103812E-1,-3.1188007E-2,-7.250674E-2,2.0068666E-1,-1.6697833E-2,-9.083594E-2,2.139836E-2,4.3575764E-2,9.0235E-2,3.4091953E-2,2.4795013E-3,-6.0776234E-2,7.012589E-2,1.4035043E-3,-8.722806E-2,-2.1933218E-2,-2.376072E-1,1.2839127E-1,2.5611306E-2,8.3335E-2,-9.168339E-2,4.3404344E-3,-5.677643E-2,6.130317E-2,1.2856263E-4,-6.593097E-2,6.382633E-2,-1.9245798E-2,-3.5684977E-3,3.351766E-3,3.638677E-2,5.5143284E-4,1.0391884E-2,-5.1125525E-3,-1.7014542E-1,6.3338235E-2,-2.2672655E-3,-2.8871328E-2,-6.237579E-3,-1.8998621E-2,-5.0375413E-2,-1.3860035E-2,8.334774E-2,3.2632528E-3,